tree
version=v4
num_class=1
num_tree_per_iteration=1
label_index=0
max_feature_idx=575
objective=regression
feature_names=Year meta_score user_review Global_Sales_mean_genre Global_Sales_mean_platform Year_Global_Sales_mean_genre Year_Global_Sales_mean_platform Cumulative_Sales_Genre Cumulative_Sales_Platform Publisher_1CCompany Publisher_20thCenturyFoxVideoGames Publisher_2DBoy Publisher_3DO Publisher_49Games Publisher_505Games Publisher_5pb Publisher_7GAMES Publisher_989Sports Publisher_989Studios Publisher_AQInteractive Publisher_ASCGames Publisher_ASCIIEntertainment Publisher_ASCIIMediaWorks Publisher_ASK Publisher_Abylight Publisher_AcclaimEntertainment Publisher_Accolade Publisher_Ackkstudios Publisher_Acquire Publisher_Activision Publisher_ActivisionBlizzard Publisher_ActivisionValue Publisher_AdelineSoftware Publisher_Aerosoft Publisher_AgatsumaEntertainment Publisher_Agetec Publisher_AksysGames Publisher_AlawarEntertainment Publisher_Alchemist Publisher_AlternativeSoftware Publisher_Altron Publisher_Alvion Publisher_AmericanSoftworks Publisher_AngelStudios Publisher_AnswerSoftware Publisher_AquaPlus Publisher_Aques Publisher_ArcSystemWorks Publisher_Aria Publisher_Arika Publisher_ArtDink Publisher_AruzeCorp Publisher_AscaronEntertainment Publisher_AscaronEntertainmentGmbH Publisher_Asgard Publisher_AsmikAceEntertainment Publisher_AsmikCorp Publisher_Aspyr Publisher_Astragon Publisher_AsylumEntertainment Publisher_Atari Publisher_Athena Publisher_Atlus Publisher_AvalonInteractive Publisher_Avanquest Publisher_AvanquestSoftware Publisher_Axela Publisher_BAMEntertainment Publisher_BMGInteractiveEntertainment Publisher_BPS Publisher_Banpresto Publisher_Benesse Publisher_Berkeley Publisher_BethesdaSoftworks Publisher_BigBenInteractive Publisher_BigFishGames Publisher_BigbenInteractive Publisher_BlackBeanGames Publisher_BlastEntertainmentLtd Publisher_BlueByte Publisher_BohemiaInteractive Publisher_Bomb Publisher_BoostOn Publisher_BrashEntertainment Publisher_Broccoli Publisher_BushiRoad Publisher_CBSElectronics Publisher_CCP Publisher_CDVSoftwareEntertainment Publisher_CPGProducts Publisher_CTOSpA Publisher_Capcom Publisher_Cave Publisher_ChunSoft Publisher_CityInteractive Publisher_CloudImperiumGamesCorporation Publisher_CoconutsJapan Publisher_Codemasters Publisher_CodemastersOnline Publisher_CokeMInteractive Publisher_Coleco Publisher_Comfort Publisher_Commseed Publisher_Compile Publisher_CompileHeart Publisher_ConspiracyEntertainment Publisher_CoreDesignLtd Publisher_CraveEntertainment Publisher_CreativeCore Publisher_CrimsonCow Publisher_CrystalDynamics Publisher_CultureBrain Publisher_CulturePublishers Publisher_CyberFront Publisher_Cygames Publisher_D3Publisher Publisher_DHMInteractive Publisher_DSIGames Publisher_DTPEntertainment Publisher_Daedalic Publisher_DaedalicEntertainment Publisher_Daito Publisher_DataAge Publisher_DataDesignInteractive Publisher_DataEast Publisher_DatamPolystar Publisher_DeepSilver Publisher_DestinationSoftwareInc Publisher_Destineer Publisher_Detn8Games Publisher_DevolverDigital Publisher_DigiCube Publisher_DisneyInteractiveStudios Publisher_Dorart Publisher_DreamCatcherInteractive Publisher_DreamWorksInteractive Publisher_DusenberryMartinRacing Publisher_EAGames Publisher_EONDigitalEntertainment Publisher_ESP Publisher_EasyInteractive Publisher_Ecole Publisher_Edia Publisher_EidosInteractive Publisher_ElectronicArts Publisher_ElectronicArtsVictor Publisher_Elf Publisher_Elite Publisher_EmpireInteractive Publisher_Encore Publisher_EnixCorporation Publisher_EnjoyGamingltd Publisher_Enterbrain Publisher_EpicGames Publisher_Epoch Publisher_Ertain Publisher_EssentialGames Publisher_EvolutionGames Publisher_EvolvedGames Publisher_ExcaliburPublishing Publisher_ExperienceInc Publisher_ExtremeEntertainmentGroup Publisher_FalcomCorporation Publisher_Fields Publisher_FlashpointGames Publisher_FlightPlan Publisher_FocusHomeInteractive Publisher_FocusMultimedia Publisher_ForeignMediaGames Publisher_Fortyfive Publisher_FoxInteractive Publisher_FromSoftware Publisher_FuRyu Publisher_FuRyuCorporation Publisher_Fuji Publisher_FunSoft Publisher_FunboxMedia Publisher_Funcom Publisher_Funsta Publisher_GRev Publisher_GNSoftware Publisher_GOA Publisher_GSP Publisher_GTInteractive Publisher_Gaga Publisher_GainaxNetworkSystems Publisher_Gakken Publisher_GameArts Publisher_GameFactory Publisher_GameLife Publisher_GameMillEntertainment Publisher_GameTek Publisher_Gamebridge Publisher_Gamecock Publisher_Gameloft Publisher_GatheringofDevelopers Publisher_GeneralEntertainment Publisher_Genki Publisher_Genterprise Publisher_Ghostlight Publisher_Giga Publisher_Giza10 Publisher_Glams Publisher_GlobalAEntertainment Publisher_GlobalStar Publisher_GothamGames Publisher_Graffiti Publisher_GrandPrixGames Publisher_GraphsimEntertainment Publisher_GremlinInteractiveLtd Publisher_GriffinInternational Publisher_GrooveGames Publisher_GungHo Publisher_Gust Publisher_HALLaboratory Publisher_HMHInteractive Publisher_Hackberry Publisher_HamsterCorporation Publisher_Happinet Publisher_HarmonixMusicSystems Publisher_HasbroInteractive Publisher_HavasInteractive Publisher_HeadupGames Publisher_HeartyRobin Publisher_Hect Publisher_HerInteractive Publisher_HipInteractive Publisher_HomeEntertainmentSuppliers Publisher_HudsonEntertainment Publisher_HudsonSoft Publisher_HumanEntertainment Publisher_HuneX Publisher_IEInstitute Publisher_ITTFamilyGames Publisher_IcebergInteractive Publisher_IdeaFactory Publisher_IdeaFactoryInternational Publisher_IgnitionEntertainment Publisher_IllusionSoftworks Publisher_Imadio Publisher_ImageEpoch Publisher_Imageworks Publisher_Imagic Publisher_Imagineer Publisher_Imax Publisher_IndieGames Publisher_Infogrames Publisher_InsomniacGames Publisher_Interchannel Publisher_InterchannelHolon Publisher_Intergrow Publisher_Interplay Publisher_InterplayProductions Publisher_InterworksUnlimitedInc Publisher_IntiCreates Publisher_IntroversionSoftware Publisher_IremSoftwareEngineering Publisher_Ivolgamus Publisher_JVC Publisher_JackofAllGames Publisher_Jaleco Publisher_JesterInteractive Publisher_JoWoodProductions Publisher_Jorudan Publisher_JustFlight Publisher_KID Publisher_KSS Publisher_KadokawaGames Publisher_KadokawaShoten Publisher_KagaCreate Publisher_KalypsoMedia Publisher_Kamui Publisher_KandoGames Publisher_KarinEntertainment Publisher_Kemco Publisher_KidsStation Publisher_KingRecords Publisher_KnowledgeAdventure Publisher_KochMedia Publisher_KokopeliDigitalStudios Publisher_KonamiDigitalEntertainment Publisher_KoolKizz Publisher_LEGOMedia Publisher_LSPGames Publisher_Laguna Publisher_LegacyInteractive Publisher_Level5 Publisher_LexiconEntertainment Publisher_Licensed4U Publisher_LighthouseInteractive Publisher_LiquidGames Publisher_LittleOrbit Publisher_Locus Publisher_LucasArts Publisher_MC2Entertainment Publisher_MLBcom Publisher_MTO Publisher_MTVGames Publisher_MadCatz Publisher_MagicalCompany Publisher_Magix Publisher_MajescoEntertainment Publisher_MambaGames Publisher_MarvelEntertainment Publisher_MarvelousEntertainment Publisher_MarvelousGames Publisher_MarvelousInteractive Publisher_MasquePublishing Publisher_Mastertronic Publisher_Mastiff Publisher_MattelInteractive Publisher_MaxFive Publisher_MaximumFamilyGames Publisher_Maxis Publisher_MediaEntertainment Publisher_MediaFactory Publisher_MediaRings Publisher_MediaWorks Publisher_MediaQuest Publisher_MenAVision Publisher_MentorInteractive Publisher_MercuryGames Publisher_MerscomLLC Publisher_Metro3D Publisher_Michaelsoft Publisher_MicroCabin Publisher_Microids Publisher_Microprose Publisher_MicrosoftGameStudios Publisher_MidasInteractiveEntertainment Publisher_MidwayGames Publisher_Milestone Publisher_MilestoneSrl_1 Publisher_MilestoneSrl Publisher_MinatoStation Publisher_Mindscape Publisher_MiraiShounen Publisher_Misawa Publisher_Mitsui Publisher_Mojang Publisher_MonteChristoMultimedia Publisher_Moss Publisher_MudDuckProductions Publisher_MumboJumbo Publisher_Mycom Publisher_MyelinMedia Publisher_Mystique Publisher_NCS Publisher_NCSoft Publisher_NDAProductions Publisher_NEC Publisher_NECInterchannel Publisher_NamcoBandaiGames Publisher_Natsume Publisher_NavarreCorp Publisher_NaxatSoft Publisher_NekoEntertainment Publisher_NetRevo Publisher_New Publisher_NewWorldComputing Publisher_NewKidCo Publisher_Nexon Publisher_Nichibutsu Publisher_NihonFalcomCorporation Publisher_Nintendo Publisher_NipponAmuse Publisher_NipponColumbia Publisher_NipponIchiSoftware Publisher_NipponTelenet Publisher_Nitroplus Publisher_Nobilis Publisher_Nordcurrent Publisher_NordicGames Publisher_NovaLogic Publisher_NumberNone Publisher_OGames Publisher_O3Entertainment Publisher_Ocean Publisher_OfficeCreate Publisher_OnDemand Publisher_Ongakukan Publisher_OriginSystems Publisher_Otomate Publisher_OxygenInteractive Publisher_P2Games Publisher_PMStudios Publisher_PQube Publisher_PacificCenturyCyberWorks Publisher_PackInSoft Publisher_PackInVideo Publisher_PantherSoftware Publisher_Paon Publisher_PaonCorporation Publisher_ParadoxDevelopment Publisher_ParadoxInteractive Publisher_ParkerBros Publisher_PerformanceDesignedProducts Publisher_Phantagram Publisher_PhantomEFX Publisher_Phenomedia Publisher_PhoenixGames Publisher_Piacci Publisher_Pinnacle Publisher_PioneerLDC Publisher_PlayIt Publisher_PlayV Publisher_PlaylogicGameFactory Publisher_Playmates Publisher_Playmore Publisher_Plenty Publisher_PonyCanyon Publisher_PopCapGames Publisher_PopTopSoftware Publisher_PopcornArcade Publisher_Pow Publisher_PrincessSoft Publisher_Prototype Publisher_Psygnosis Publisher_Quelle Publisher_Quest Publisher_Quinrose Publisher_Quintet Publisher_REDEntertainment Publisher_RTL Publisher_RageSoftware Publisher_RainGames Publisher_Rebellion Publisher_RebellionDevelopments Publisher_RedStormEntertainment Publisher_RedOctane Publisher_ReefEntertainment Publisher_RevolutionJapan Publisher_RevolutionSoftware Publisher_RisingStarGames Publisher_Riverhillsoft Publisher_RocketCompany Publisher_Rondomedia Publisher_Russel Publisher_SCSSoftware Publisher_SCi Publisher_SNK Publisher_SNKPlaymore Publisher_SPS Publisher_SSI Publisher_SammyCorporation Publisher_Saurus Publisher_ScholasticInc Publisher_Screenlife Publisher_Sega Publisher_SetaCorporation Publisher_SeventhChord Publisher_Shogakukan Publisher_SimonSchusterInteractive Publisher_SlightlyMadStudios Publisher_SlitherineSoftware Publisher_Societa Publisher_SoldOut Publisher_Sonnet Publisher_SonyComputerEntertainment Publisher_SonyComputerEntertainmentAmerica Publisher_SonyComputerEntertainmentEurope Publisher_SonyMusicEntertainment Publisher_SonyOnlineEntertainment Publisher_SouthPeakGames Publisher_Spike Publisher_Square Publisher_SquareEA Publisher_SquareEnix Publisher_SquareSoft Publisher_StainlessGames Publisher_Starfish Publisher_StarpathCorp Publisher_Sting Publisher_StormCityGames Publisher_StrategyFirst Publisher_Success Publisher_Summitsoft Publisher_Sunflowers Publisher_SunriseInteractive Publisher_Sunsoft Publisher_Sweets Publisher_SwingEntertainment Publisher_Syscom Publisher_System3 Publisher_System3ArcadeSoftware Publisher_SystemSoft Publisher_TESoft Publisher_TDKCore Publisher_TDKMediactive Publisher_TGL Publisher_THQ Publisher_TOHO Publisher_TYO Publisher_Taito Publisher_Takara Publisher_TakaraTomy Publisher_TakeTwoInteractive Publisher_Takuyo Publisher_TalonSoft Publisher_Team17Software Publisher_TechnoSoft Publisher_TechnosJapanCorporation Publisher_TecmoKoei Publisher_Telegames Publisher_TelltaleGames Publisher_Telstar Publisher_TetrisOnline Publisher_TheAdventureCompany Publisher_TheLearningCompany Publisher_Tigervision Publisher_TimeWarnerInteractive Publisher_Titus Publisher_Tivola Publisher_Tommo Publisher_TomyCorporation Publisher_TopWareInteractive Publisher_Touchstone Publisher_Tradewest Publisher_TrionWorlds Publisher_TripwireInteractive Publisher_TruBluEntertainment Publisher_Tryfirst Publisher_TypeMoon Publisher_USGold Publisher_UFOInteractive Publisher_UIGEntertainment Publisher_Ubisoft Publisher_UbisoftAnnecy Publisher_UniversalGamex Publisher_UniversalInteractive Publisher_Unknown Publisher_ValconGames Publisher_ValuSoft Publisher_ValveSoftware Publisher_Vap Publisher_VaticalEntertainment Publisher_VicTokai Publisher_VictorInteractive Publisher_VideoSystem Publisher_Views Publisher_Vir2LStudios Publisher_VirginInteractive Publisher_VirtualPlayGames Publisher_Visco Publisher_VivendiGames Publisher_Wanadoo Publisher_Warashi Publisher_Wargamingnet Publisher_WarnerBrosInteractiveEntertainment Publisher_Warp Publisher_WayForwardTechnologies Publisher_WhiteParkBaySoftware Publisher_WizardVideoGames Publisher_XSGames Publisher_XicatInteractive Publisher_XingEntertainment Publisher_Xplosiv Publisher_XseedGames Publisher_YachtClubGames Publisher_YamasaEntertainment Publisher_Yeti Publisher_Yukes Publisher_Yumedia Publisher_Zenrin Publisher_ZooDigitalPublishing Publisher_ZooGames Publisher_ZushiGames Publisher_bitComposerGames Publisher_dramaticcreate Publisher_fonfun Publisher_iWin Publisher_idSoftware Publisher_imageepochInc Publisher_inXileEntertainment Publisher_mixiInc Publisher_responDESIGN
feature_infos=[-4.7589659351812958:1.8546811351953489] [-6.4374853141525561:3.2940628084599366] [-7.8256081722760547:2.6772270139883898] [-2.0231883591846902:2.4063882571253115] [-1.9611090304594307:8.4944111653792582] [-2.0378939619182468:2.4350438345320171] [-1.9671932019321525:8.4902680836513369] [-1.6586924836917594:1.8360186843103972] [-1.6013190774537587:1.8542985274268899] none none none [0:1] none [0:1] [0:1] none none none none none none none none none [0:1] none none none [0:1] none [0:1] none none none none none none [0:1] none none none none none none none none none none none none none none none none none none none none none [0:1] none [0:1] none [0:1] none none [0:1] none none [0:1] none none [0:1] none none none [0:1] none none none none none none none none none none none none none [0:1] none none none none none [0:1] none none none none none none none none none [0:1] none none none none none none none [0:1] none none [0:1] none none none none none none none [0:1] none [0:1] none none none [0:1] none none none none none none none none none none [0:1] [0:1] none none none [0:1] none none none none none none none none none none none none none none none none none [0:1] none none none none none [0:1] none none none none none none none none none none [0:1] none none none none [0:1] none none none none none none none none none none none none none none none [0:1] none none none none none none none none none none none none none none none none none none none none none none none none [0:1] none none none none none [0:1] none [0:1] none none none none none none none none [0:1] none none none none [0:1] none none none none none none none none none none none none none none none none [0:1] none [0:1] none none none none none none none none none [0:1] none none none none none none none none none none [0:1] none [0:1] none none none [0:1] none none none [0:1] none none none none [0:1] none none none none none none none none none none none none none none none none none none none none none [0:1] none [0:1] none none none none [0:1] none none none none none none none none none none none none none none none none [0:1] none none none none none none none none none none none [0:1] none none [0:1] none none none none [0:1] none none none none none none none none none none none none none [0:1] none none none none none none none [0:1] none none none none none none none none none none none none none none none none none none none none none none [0:1] none none none none none none none none none none none none none none none [0:1] none none none none none none none none none none none none none none [0:1] none none none none none none none none none [0:1] none none none none [0:1] [0:1] none none [0:1] [0:1] none none none none none none none none none none none none none none none none none none none [0:1] none [0:1] none none none none [0:1] [0:1] none none none none none [0:1] none none none none none none none none none none none none none none none none none none none none none none none [0:1] none none none [0:1] none none none none none none none none none none [0:1] none none [0:1] none none none [0:1] none none none none none none none none none none none none none none none [0:1] [0:1] none none none none none none none none none none
tree_sizes=2760 2861 2864 2859 2869 2861 2882 2871 2862 2902 2849 2896 2895 2913 2916 2905 2909 2919 2907 2921 2912 2927 2926 2935 2940 2926 2949 2945 2926 2907 2937 2942 2927 2937 2931 2914 2892 2954 2940 2955 2943 2965 2979 2964 2965 2970 2971 2952 2952 2948 2981 2962 2973 2979 2989 2975 2964 2960 2950 2975 2987 2959 2960 2970 2993 2938 2956 2943 2964 2988 2967 2934 2959 2993 2950 2985 2936 2954 3011 3003 2967 2968 2983 2983 2996 2963 2980 2969 2954 2955 2989 2982 2984 2986 2961 2959 2955 2972 2984 2986 2991 2988 2978 2948 2991 2976 2983 2958 2998 2943 3003 2975 2966 2985 3002 2967 2971 2994 2992 2983 2978 3002 3003 3025 3005 2970 2985 2966 3004 3007 3008 2990 2996 3010 3010 2978 2989 2980 2993 2983 3019 2976 2984 3002 2987 2992 3008 2990 2992 2965 2997 2981 2958 3013 2985 2978 3008 3007 2993 3002 2966 3009 2992 2983 3011 2958 3017 2980 3008 2985 2969 3018 3002 3027 3009 2990 2984 2997 3008 3003 2961 3025 3014 2985 2996 3002 2974 2990 2987 2971 3007 2979 2990 3022 2999 2997 3011 3030 2993 2996 3000 2983 2984 3013 3008 3009 2996 3004 2955 3001 2991 2975 2990 2986 2990 2994 3005 3013 2998 3013 2998 2993 3012 3038 3015 2992 2974 3004 3009 2984 3000 3015 3019 3010 2996 2994 2991 3022 2975 3017 3008 2989 2982 2993 3005 3004 3006 2993 3021 2996 2998 2995 3026 2991 2995 3023 3014 3014 3033 2980 3014 3041 3004 3014 2983 2986 2999 2987 2985 3017 3014 3026 3004 3018 3000 2989 2982 3021 3014 3015 3023 2994 3027 2982 3038 2994 2981 3002 3033 3010 3046 3008 3041 3019 3037 3001 3012 2998 3023 2992 3033 3024 2986 3023 3018 2999 3022 3011 3030 3002 2984 3030 2988 3042 3021 3021 2976 2991 2962 3015 3034 3017 2987 3006 2960 2997 3015 3000 3001 3013 3035 3023 3041 3010 3030 3006 3021 3019 3016 3025 3006 3006 3007 3043 3035 3033 3020 2996 2980 2993 3031 3005 3020 3011 3017 3020 3020 3016 2986 3007 3006 3016 2999 3011 3028 3013 3000 3019 3036 3012 3035 2990 2999 3019 3015 2989 3002 3020 2995 3039 3011 3030 3005 3019 3003 3018 3012 3007 3035 3000 3008 3056 3007 3039 3017 2992 3007 3030 3030 3019 2995 3003 3023 2997 3003 3018 3003 3015 3026 2997 3022 3028 3019 3009 3014 3043 3024 3037 3048 3031 3053 3055 3023 3051 3021 3012 3010 3046 3004 3017 3007 3021 3021 3041 3016 3032 3010 3043 3009 3034 3041 3023 3004 2999 3000 3004 2985 2993 3010 2995 3014 2988 3024 3023 3001 3018 3019 3025 3039 3040 3021 3035 3013 3015 3030 3024 3018 3027 3023 3018 3005 3034 3022 3008 3023 3024 3004 3007 3028 3037 3026 3020 3021 3038 3041 3021 3032 3017 3036 3035 3061 3039 3053 3003 2998 3032 3013 3018 2997 3016

Tree=0
num_leaves=31
num_cat=0
split_feature=4 8 8 7 8 8 0 8 8 8 4 8 8 8 8 4 0 8 4 8 8 7 3 8 8 8 8 4 6 4
split_gain=37.2901 90.5863 40.1158 22.3848 20.1046 25.8137 19.6719 23.2113 18.5517 31.6691 14.7435 11.5749 13.5 9.48872 49.6497 8.75605 8.38214 18.4785 8.21412 7.51039 6.82915 6.56299 9.50089 6.47422 6.15454 5.6198 5.55748 5.20166 7.12919 4.84895
threshold=1.0000000180025095e-35 0.83018827363693337 -0.98315866149415287 0.76044748939633322 -1.3681780643733827 -1.1202544076492915 -0.91590074563811019 0.1742748301486706 -0.093559287059630916 0.54630003776452118 0.72803735640476541 -0.96422625871793877 -1.097325940523264 -0.37185862174349305 0.1742748301486706 -0.52635910819466103 -0.20091187316495956 1.4883652221065591 -0.71955263043551609 0.44950026917882996 -0.093559287059630916 1.5409388641777617 0.11323435537294924 -0.044083539287989457 -1.2735300227452835 0.32394560397804756 -0.86801332475704551 -0.52635910819466103 -0.81377056953688387 0.79715428131180444
decision_type=2 2 2 2 2 2 2 2 2 2 2 2 2 2 2 2 2 2 2 2 2 2 2 2 2 2 2 2 2 2
left_child=2 3 4 6 -1 24 7 11 26 25 -11 12 -2 -4 20 18 17 -3 -7 -16 -15 22 -5 -13 -6 -10 -8 28 -26 -12
right_child=1 16 13 21 5 15 8 -9 9 10 29 23 -14 14 19 -17 -18 -19 -20 -21 -22 -23 -24 -25 27 -27 -28 -29 -30 -31
leaf_value=0.22445258905202162 0.26848417650735507 0.25507201522681872 0.21847345977919422 0.25136589142804683 0.30105599716873688 0.24189678023625835 0.25051846640352482 0.22710062406393969 0.30374784028393398 0.2952243467625143 0.23752486532860873 0.28367789434668916 0.22920310876694264 0.29536720442710562 0.23411227331081921 0.25794683760633597 0.22323319722220314 0.22343949454865883 0.2184347802114264 0.21686929914800815 0.25900952600575666 0.21968770724908371 0.22094025819480401 0.25390542247883058 0.27568077524176576 0.28100701366770903 0.219679964180265 0.30152113814580372 0.24404382996992299 0.25740995565163172
leaf_weight=517 148 296 2402 316 54 368 187 410 178 77 229 182 214 77 335 171 2096 491 251 1027 157 196 152 122 145 279 85 34 140 264
leaf_count=517 148 296 2402 316 54 368 187 410 178 77 229 182 214 77 335 171 2096 491 251 1027 157 196 152 122 145 279 85 34 140 264
internal_value=0.233684 0.239235 0.227893 0.251282 0.24086 0.248154 0.25582 0.24582 0.264103 0.270253 0.254529 0.257344 0.245263 0.222445 0.228421 0.237917 0.226537 0.235337 0.232383 0.22111 0.270973 0.23505 0.241484 0.27173 0.269835 0.289864 0.240881 0.26455 0.26014 0.248173
internal_weight=0 5922 5678 3039 1680 1163 2375 1076 1299 1027 570 666 362 3998 1596 790 2883 787 619 1362 234 664 468 304 373 457 272 319 285 493
internal_count=11600 5922 5678 3039 1680 1163 2375 1076 1299 1027 570 666 362 3998 1596 790 2883 787 619 1362 234 664 468 304 373 457 272 319 285 493
is_linear=0
shrinkage=1


Tree=1
num_leaves=31
num_cat=0
split_feature=4 8 8 7 0 8 8 8 8 8 4 8 8 8 8 8 6 8 8 8 8 4 4 8 4 4 7 3 8 6
split_gain=30.205 73.5874 32.6957 18.4359 15.4362 18.8276 15.1119 22.5716 14.0749 28.1072 9.91651 8.39015 40.3191 8.0948 11.4695 7.55835 19.8109 13.0406 7.02313 6.63765 6.57353 6.26166 5.58228 5.36466 5.27553 6.50378 5.14309 7.70314 5.13258 4.86216
threshold=1.0000000180025095e-35 0.84108663095460656 -0.96971735413568949 0.79176165393852238 -0.91590074563811019 0.21138513404064449 -1.3681780643733827 -1.1117732500956665 -0.093559287059630916 0.6149457166128901 0.72803735640476541 -0.37185862174349305 0.21138513404064449 -0.96422625871793877 -1.1117732500956665 1.7605307377359873 0.2801081377460875 1.3860324413442033 1.0000000180025095e-35 -0.14448814914029554 0.35518756162204373 -0.52635910819466103 -0.71955263043551609 -1.2441743192524231 -0.52635910819466103 -0.71955263043551609 1.4904077576126997 0.11323435537294924 0.50354494367211144 0.38269573919171013
decision_type=2 2 2 2 2 2 2 2 2 2 2 2 2 2 2 2 2 2 2 2 2 2 2 2 2 2 2 2 2 2
left_child=2 3 6 4 5 13 -1 23 -6 20 -11 -4 19 14 -2 16 17 -3 -15 -13 -10 22 -9 -8 25 -25 27 -5 -14 -7
right_child=1 15 11 26 8 29 7 21 9 10 -12 12 28 18 -16 -17 -18 -19 -20 -21 -22 -23 -24 24 -26 -27 -28 -29 -30 -31
leaf_value=-0.0083079282429458379 0.034426183993260327 0.024321139745319947 -0.01416108826067268 0.016170529240623965 0.006813482694417252 0.037646584480029083 0.053987367684582635 0.0049924110697515045 0.061194520910209584 0.051431641308590771 0.0092343760391106807 0.061182578457029249 -0.0025362277371826971 0.043586661058505727 -0.0025200309843178533 -0.017285396168371301 -0.010978329867035057 -0.001691518318113543 0.014126312373964875 0.022644826665448682 0.038970151649449364 0.018629965644917989 -0.014244321872036165 0.034813385675935185 0.059526501595973974 0.0045794717813456868 -0.011540498085286436 -0.01239218847097262 -0.015966277812486111 -0.0097735522298137163
leaf_weight=517 129 316 2314 299 276 23 83 415 214 64 429 57 412 202 241 539 1488 494 135 207 352 190 237 153 40 133 222 138 920 361
leaf_count=517 129 316 2314 299 276 23 83 415 214 64 429 57 412 202 241 539 1488 494 135 207 352 190 237 153 40 133 222 138 920 361
internal_value=0 0.00499659 -0.00521131 0.0156864 0.0197154 0.0108917 0.00607351 0.0120169 0.0269265 0.0321684 0.0147123 -0.010314 -0.00473623 0.0205731 0.0103612 -0.00662767 -0.00412789 0.00845663 0.031785 0.0309655 0.047373 0.00265515 -0.00200008 0.0312898 0.025511 0.0207536 0.000854136 0.00715072 -0.0118122 -0.00693328
internal_weight=0 5922 5678 3085 2426 1091 1768 1251 1335 1059 493 3910 1596 707 370 2837 2298 810 337 264 566 842 652 409 326 286 659 437 1332 384
internal_count=11600 5922 5678 3085 2426 1091 1768 1251 1335 1059 493 3910 1596 707 370 2837 2298 810 337 264 566 842 652 409 326 286 659 437 1332 384
is_linear=0
shrinkage=0.1


Tree=2
num_leaves=31
num_cat=0
split_feature=7 6 8 8 8 8 6 4 8 8 8 6 0 8 8 0 8 6 8 4 8 0 8 8 4 8 8 8 8 8
split_gain=25.0241 23.5542 49.8875 19.5373 16.8049 14.3503 16.0088 22.3156 23.801 18.1448 14.2877 8.04312 7.81516 8.25288 6.84004 7.19729 6.24361 15.3436 8.6964 5.51968 22.8656 7.03784 9.38417 5.38726 5.38508 3.50933 3.4895 3.31675 3.0343 2.66834
threshold=1.644290308652687 -0.51674809128011001 0.86208692717058422 -1.0773875355331108 -1.3681780643733827 -0.37185862174349305 0.76704005014158183 0.33525296919668296 0.24299037026189643 0.56514860702290692 -1.0675650416942337 -0.81377056953688387 -0.20091187316495956 0.59041044039515433 -0.14448814914029554 -0.20091187316495956 1.741891752272172 0.2801081377460875 1.3272651453465971 -0.58420989708457471 0.33480204453680651 -0.55840630940153491 -0.044083539287989457 -0.94117204131516885 1.0000000180025095e-35 -1.5268888858752396 -1.2258287511010069 -0.84550402522015922 -1.2735300227452835 -1.4298376167360638
decision_type=2 2 2 2 2 2 2 2 2 2 2 2 2 2 2 2 2 2 2 2 2 2 2 2 2 2 2 2 2 2
left_child=1 3 5 4 25 10 7 -7 14 -8 24 28 -10 -14 -9 -16 17 18 -4 23 21 -21 -23 -5 -3 -1 -13 -12 -6 -26
right_child=-2 2 16 19 11 6 9 8 12 -11 27 26 13 -15 15 -17 -18 -19 -20 20 -22 22 -24 -25 29 -27 -28 -29 -30 -31
leaf_value=0.007458526721346552 -0.014172659451762834 0.044494315940472817 0.023145584122659602 -0.0038187077958523608 0.060781379427228659 0.053043237910038094 0.050516811750268426 0.055978672932355839 -0.010032411746976671 0.01740834064431562 0.0018483863011971519 0.035251960381865503 0.025738962445050313 -0.0010257810397976727 0.016419732676905267 0.060164853659543133 -0.015248546487418935 -0.0098101616009841647 0.00051521597170930186 -0.0034981689651206295 -0.012156603422234727 0.046220649282137559 0.011033660240345083 -0.015273651329656846 0.037745043821632865 -0.011909381288056405 0.0030007704622291315 -0.011550389729038912 0.029120616663047778 0.012276089924224833
leaf_weight=137 1125 72 261 626 35 123 279 78 428 407 742 40 177 330 259 44 512 1208 486 186 1047 102 295 1193 46 295 208 246 224 389
leaf_count=137 1125 72 261 626 35 123 279 78 428 407 742 40 177 330 259 44 512 1208 486 186 1047 102 295 1193 46 295 208 246 224 389
internal_value=0 0.00152212 0.00554826 -0.0040629 0.00872541 0.0130218 0.0183028 0.01231 0.00850282 0.0308737 0.0055153 0.0210742 -8.19076e-05 0.00831812 0.0295703 0.0227722 -0.00541813 -0.00284362 0.00842221 -0.00754455 -0.00331852 0.0125536 0.0200741 -0.0113315 0.0191623 -0.00576724 0.00820258 -0.00148775 0.0333991 0.0149694
internal_weight=0 10475 6087 4388 939 3620 2125 1439 1316 686 1495 507 935 507 381 303 2467 1955 747 3449 1630 583 397 1819 507 432 248 988 259 435
internal_count=11600 10475 6087 4388 939 3620 2125 1439 1316 686 1495 507 935 507 381 303 2467 1955 747 3449 1630 583 397 1819 507 432 248 988 259 435
is_linear=0
shrinkage=0.1


Tree=3
num_leaves=31
num_cat=0
split_feature=7 6 8 8 8 0 8 8 8 8 8 4 8 4 8 8 4 4 8 8 8 8 4 4 8 4 8 6 8 4
split_gain=20.3597 18.8729 40.5798 15.6764 14.5817 18.4446 22.0203 16.9015 13.3964 11.386 6.86748 5.85087 5.7763 13.8206 7.65463 5.75238 4.97524 4.599 4.44985 14.0324 16.495 4.74715 4.26656 3.34535 3.27386 3.16383 5.72263 3.01675 2.83569 2.79075
threshold=1.6761400273168252 -0.51674809128011001 0.80540149686571294 -1.0773875355331108 -0.37185862174349305 -0.91590074563811019 0.043424681071736797 0.62909960887289385 -1.3681780643733827 -1.0628144756839659 -1.213044139632198 -0.81459336182304798 1.7217018467285341 0.72803735640476541 1.2623500580415852 0.35518756162204373 0.72803735640476541 1.0000000180025095e-35 0.56514860702290692 -0.37185862174349305 0.081471125912792805 -0.93795842313175248 0.33525296919668296 0.79715428131180444 0.3007516640455638 5.2462125045856158 -0.91199797711093622 0.38269573919171013 -1.5268888858752396 0.79715428131180444
decision_type=2 2 2 2 2 2 2 2 2 2 2 2 2 2 2 2 2 2 2 2 2 2 2 2 2 2 2 2 2 2
left_child=1 3 4 8 9 6 -6 15 28 17 -10 -12 13 14 -4 -7 -9 -3 19 21 -21 -5 -17 -24 -8 -11 -27 -26 -1 -18
right_child=-2 2 12 18 5 7 24 16 10 25 11 -13 -14 -15 -16 22 29 -19 -20 20 -22 -23 23 -25 27 26 -28 -29 -30 -31
leaf_value=0.0067126739151558302 -0.013385100667747321 0.039379758191736121 0.023903136334071557 -0.0027371451572537572 0.038167557289857351 0.050193607762975746 0.0063789712970127718 0.042270078539848328 0.039040986132621767 -0.0030317233279428231 0.032533891426706783 0.004737824694110224 -0.013329901794592539 -0.0076314332407782376 0.0021412012955136224 0.062998706764645057 0.00062908764478366522 0.012809341653682119 -0.014242333880983865 0.033763394688858708 -0.001308836656683088 -0.012987202495155151 0.016068726957396227 0.034968322904797289 0.029059598669409756 0.057288705348968509 -0.004314932673955091 -0.010872419690979379 -0.010669571587553361 0.016379060627142918
leaf_weight=137 1035 76 240 683 167 215 235 50 125 922 103 286 555 1427 495 36 211 456 650 170 635 1335 162 222 20 25 38 350 298 241
leaf_count=137 1035 76 240 683 167 215 235 50 125 922 103 286 555 1427 495 36 211 456 650 170 635 1335 162 222 20 25 38 350 298 241
internal_value=0 0.00131127 0.00489721 -0.00367029 0.0121352 0.0179508 0.00602187 0.0260504 0.00771995 0.00481669 0.0186501 0.0120977 -0.00422948 -0.00189334 0.00924714 0.0368908 0.0123378 0.0166051 -0.00678268 -0.00506508 0.00609772 -0.00951803 0.0300811 0.0269951 -0.0028514 -0.00155025 0.020131 -0.00871393 -0.00519516 0.00902675
internal_weight=0 10565 6143 4422 3426 1909 772 1137 949 1517 514 389 2717 2162 735 635 502 532 3473 2823 805 2018 420 384 605 985 63 370 435 452
internal_count=11600 10565 6143 4422 3426 1909 772 1137 949 1517 514 389 2717 2162 735 635 502 532 3473 2823 805 2018 420 384 605 985 63 370 435 452
is_linear=0
shrinkage=0.1


Tree=4
num_leaves=31
num_cat=0
split_feature=7 6 8 8 8 8 6 4 8 8 8 6 4 0 8 8 0 8 6 8 8 8 4 8 8 8 8 8 6 4
split_gain=16.5046 15.3922 31.3442 12.0541 10.7787 10.7622 11.2989 13.0207 16.4659 12.8489 10.9583 6.65148 4.97686 4.94632 6.43976 4.70996 4.47191 3.99047 8.90973 7.23647 3.747 3.36829 10.7227 13.8936 3.76683 2.86748 2.78127 2.53491 2.44702 4.49953
threshold=1.6909990289356041 -0.53780798733912605 0.87196531002134703 -1.0836471048642871 -1.3681780643733827 -0.37185862174349305 0.76704005014158183 0.33525296919668296 0.22901811729052085 0.50354494367211144 -1.055157681055652 -0.81377056953688387 1.0000000180025095e-35 -0.20091187316495956 0.4916545563934705 -0.14448814914029554 -0.20091187316495956 1.7770319684951821 0.2801081377460875 1.4425641768663897 -0.84550402522015922 0.58257200647821261 -0.58420989708457471 0.10786471177572157 -0.92875070842361584 -1.1731952741578342 -0.20076838410899706 0.68723815348678829 -0.51360822683551655 1.1571161799582705
decision_type=2 2 2 2 2 2 2 2 2 2 2 2 2 2 2 2 2 2 2 2 2 2 2 2 2 2 2 2 2 2
left_child=1 3 5 4 -1 10 7 -7 15 -8 12 -6 -3 -10 -15 -9 -17 18 19 -4 28 22 24 26 -5 -13 -24 -11 -12 -30
right_child=-2 2 17 21 11 6 9 8 13 27 20 25 -14 14 -16 16 -18 -19 -20 -21 -22 -23 23 -25 -26 -27 -28 -29 29 -31
leaf_value=-0.0046913635284925644 -0.012348497787283528 0.035624731103984675 0.016224329965860082 -0.0036778229726999265 0.028456366040963466 0.037998306059503356 0.04452647772510495 0.046564047764509155 -0.0078872253628580555 0.024754240134277863 0.012725103008669131 0.019654698199814274 0.010900013530075071 0.026720308313767118 0.00046678065433789282 0.013724691286867808 0.050213506435736632 -0.013332539037973793 -0.0082860327022222045 -0.00269808533672659 -0.0099463315329067267 -0.013186001706931551 0.055134496273416468 -0.0022290338004885206 -0.012820636124880994 -0.0034497404461664044 0.023068501393000287 0.0098030570509872149 -0.0074880188969113333 0.01056098279279559
leaf_weight=440 990 98 347 760 246 145 226 78 452 185 172 84 481 120 422 242 39 432 1192 484 378 590 33 672 1107 149 150 293 374 219
leaf_count=440 990 98 347 760 246 145 226 78 452 185 172 84 481 120 422 242 39 432 1192 484 378 590 33 672 1107 149 150 293 374 219
internal_value=0 0.00115222 0.00425419 -0.00352458 0.00660832 0.00979871 0.0144299 0.00951926 0.00646718 0.024879 0.00387658 0.016988 0.0150849 -0.000162583 0.00627937 0.0248237 0.018789 -0.004608 -0.00274492 0.00520333 -0.0018011 -0.00633621 -0.0048515 0.00442316 -0.00909887 0.00487976 0.0288509 0.0155896 0.0022236 -0.000822367
internal_weight=0 10610 6379 4231 919 3924 2202 1498 1353 704 1722 479 579 994 542 359 281 2455 2023 831 1143 3312 2722 855 1867 233 183 478 765 593
internal_count=11600 10610 6379 4231 919 3924 2202 1498 1353 704 1722 479 579 994 542 359 281 2455 2023 831 1143 3312 2722 855 1867 233 183 478 765 593
is_linear=0
shrinkage=0.1


Tree=5
num_leaves=31
num_cat=0
split_feature=7 4 8 8 0 8 8 8 8 8 6 8 8 8 8 4 8 8 4 8 7 6 4 8 4 8 8 8 8 8
split_gain=13.3923 12.5006 25.6957 11.3439 12.3081 15.1212 11.378 9.6944 8.94307 7.84726 6.40571 4.33514 3.90785 4.04238 3.90721 10.1812 4.80122 3.28439 3.1104 2.94621 2.87296 2.74078 2.70707 2.58897 10.0995 9.0283 2.53982 2.4503 2.41398 2.34786
threshold=1.7052909732487895 -0.52635910819466103 0.80540149686571294 -0.37185862174349305 -0.91590074563811019 0.081471125912792805 0.64722162097676816 -1.0723575244634154 -1.0723575244634154 -1.3681780643733827 -0.81313488159905412 0.2851726019824799 -1.2075809887203901 -1.4017953050225127 1.7001845771526154 0.72803735640476541 1.191804152789109 -0.84550402522015922 0.33525296919668296 -1.1898921164586282 -1.5339608785837362 0.76704005014158183 0.72803735640476541 0.53622604337215918 -0.58420989708457471 0.043424681071736797 -0.94498646637635442 -1.1493166938297532 -1.4609817686092603 -0.20076838410899706
decision_type=2 2 2 2 2 2 2 2 2 2 2 2 2 2 2 2 2 2 2 2 2 2 2 2 2 2 2 2 2 2
left_child=1 7 3 8 5 29 11 9 12 28 27 -6 13 -3 15 16 -4 -10 -13 -12 -9 -20 -8 24 26 -26 -22 -11 -1 -5
right_child=-2 2 14 4 6 -7 22 20 17 10 19 18 -14 -15 -16 -17 -18 -19 21 -21 23 -23 -24 -25 25 -27 -28 -29 -30 -31
leaf_value=0.00092626383950802557 -0.011409305338821715 0.025638004335798797 0.021800769147200465 0.046595372259616852 0.045066572004493252 -0.0030844447753607018 0.032933469948380499 0.025570609112238064 0.0022887966263883315 0.033122122997086341 0.01993483116521555 0.051171785800956021 0.02396879175527937 -0.0010792598827974872 -0.010588831330133865 -0.0062498444978318834 0.0032748205549403501 -0.0089198092066834437 0.014460043626881781 -0.0044426276758211397 -0.003089410240430232 0.02950481377489917 0.0065717538039240511 -0.011324510833616904 0.029305160045623779 0.00021965846072823038 -0.011092879722377489 0.01443167972818224 -0.01476919044268458 0.022213543706865454
leaf_weight=298 945 79 195 56 141 583 43 29 833 146 68 43 236 200 605 1448 495 381 210 183 584 286 414 723 130 596 1235 135 146 134
leaf_count=298 945 79 195 56 141 583 43 29 833 146 68 43 236 200 605 1448 495 381 210 183 584 286 414 723 130 596 1235 135 146 134
internal_value=0 0.0010119 0.0038146 0.00932361 0.0146358 0.00490003 0.0212547 -0.00317412 0.00345535 0.00558033 0.0137719 0.0294555 0.0144974 0.00648584 -0.00349392 -0.00148624 0.00851041 -0.0012289 0.0253717 0.00216162 -0.00576567 0.0231351 0.00905218 -0.00604374 -0.00454355 0.00542781 -0.00852332 0.0241427 -0.00423485 0.0293998
internal_weight=0 10655 6382 3639 1910 773 1137 4273 1729 976 532 680 515 279 2743 2138 690 1214 539 251 3297 496 457 3268 2545 726 1819 281 444 190
internal_count=11600 10655 6382 3639 1910 773 1137 4273 1729 976 532 680 515 279 2743 2138 690 1214 539 251 3297 496 457 3268 2545 726 1819 281 444 190
is_linear=0
shrinkage=0.1


Tree=6
num_leaves=31
num_cat=0
split_feature=7 4 8 8 6 8 6 8 8 4 8 8 144 8 8 4 8 4 8 0 7 0 8 8 6 8 8 4 8 8
split_gain=10.8717 10.1116 21.1903 7.85056 7.63908 7.12402 6.4382 6.62881 4.49316 4.18405 3.95339 8.3569 3.57486 3.31738 5.85672 9.45656 10.4052 4.23023 3.30671 3.32646 2.79359 2.58244 3.75114 2.55171 5.83924 5.20838 2.38254 8.40974 8.84408 2.46656
threshold=1.7191523740521732 -0.52635910819466103 0.8901292388841352 -1.0836471048642871 0.76704005014158183 -1.3681780643733827 1.2910151542155781 0.59041044039515433 -1.2441743192524231 -0.81459336182304798 -0.90269245663200015 -0.99861197328049456 1.0000000180025095e-35 -1.0326623537717372 -0.37185862174349305 0.33525296919668296 0.27279318584984097 1.0000000180025095e-35 -0.093559287059630916 -0.20091187316495956 0.84874041208940065 -0.20091187316495956 0.67117006256970613 1.7917168063680979 0.2801081377460875 1.5376593305895729 0.54630003776452118 -0.58420989708457471 0.13090495692552034 -0.92875070842361584
decision_type=2 2 2 2 2 2 2 2 2 2 2 2 2 2 2 2 2 2 2 2 2 2 2 2 2 2 2 2 2 2
left_child=1 3 4 5 12 -1 7 20 -7 -10 11 -8 13 17 -15 -16 18 -3 -17 -20 -6 -18 -23 24 25 -4 27 29 -29 -5
right_child=-2 2 23 26 6 8 10 -9 9 -11 -12 -13 -14 14 15 16 21 -19 19 -21 -22 22 -24 -25 -26 -27 -28 28 -30 -31
leaf_value=-0.0038188643413320476 -0.010555795648445686 0.028183289377366083 0.011374500687741901 -0.0029801426941601489 0.031833855194392906 0.034890906620456512 -0.00014272512331830735 0.011110542223534803 0.026114163658133262 0.0030557777331178559 -0.0076383918630848965 0.040302172570011105 0.017554562134123094 -0.0045838836332382253 0.035113309011572884 0.035311580875090197 -0.008080993627213642 0.0056567265962629287 0.0083425230770770731 0.037867814103762311 0.002571708389506158 0.013576966210216436 -0.0039212985905634681 -0.011387135484550573 -0.0073368362048139282 -0.0041095802369080997 -0.01030405957960605 0.022718217162694333 -0.0014149387883994598 -0.010327100159527463
leaf_weight=446 900 118 431 770 348 83 165 440 108 290 168 74 208 776 105 84 388 284 251 45 36 197 324 395 1128 438 699 207 570 1124
leaf_count=446 900 118 431 770 348 83 165 440 108 290 168 74 208 776 105 84 388 284 251 45 36 197 324 395 1128 438 699 207 570 1124
internal_value=0 0.000887871 0.00340617 -0.00286468 0.00784871 0.00528505 0.014407 0.0194896 0.0137265 0.00931283 0.00411686 0.01238 0.00494469 0.00392491 0.00237914 0.00625526 0.00390453 0.012269 0.0178005 0.0128312 0.0290905 -0.00190458 0.00269513 -0.00404325 -0.00259065 0.0035701 -0.00510645 -0.00374624 0.00501436 -0.00734022
internal_weight=0 10700 6403 4297 4011 927 1231 824 481 398 407 239 2780 2572 2170 1394 1289 402 380 296 384 909 521 2392 1997 869 3370 2671 777 1894
internal_count=11600 10700 6403 4297 4011 927 1231 824 481 398 407 239 2780 2572 2170 1394 1289 402 380 296 384 909 521 2392 1997 869 3370 2671 777 1894
is_linear=0
shrinkage=0.1


Tree=7
num_leaves=31
num_cat=0
split_feature=7 4 8 8 6 8 6 8 4 8 8 8 8 4 8 4 8 0 0 8 7 8 0 8 8 6 8 8 4 8
split_gain=8.83801 8.1761 17.2149 6.37647 6.27876 6.21858 5.09172 5.76638 3.672 3.26813 7.44993 2.95586 5.48252 10.085 10.3026 3.12411 3.08432 3.48388 2.29284 3.65649 2.08604 2.06961 2.37223 2.02737 2.02032 4.47384 4.43168 1.85586 4.44415 8.01246
threshold=1.7307560466943994 -0.52635910819466103 0.89813533983673355 -1.0907310371207746 0.76704005014158183 -1.3681780643733827 1.2910151542155781 0.6676769993268622 -0.71955263043551609 -0.90491404485444871 -0.99861197328049456 -1.041618567926389 -0.37185862174349305 0.33525296919668296 0.27279318584984097 1.0000000180025095e-35 -0.093559287059630916 -0.20091187316495956 -0.20091187316495956 0.65895831347272371 -1.5339608785837362 -1.5268888858752396 0.69282421742647904 -1.0836471048642871 1.8033277485873109 0.2801081377460875 1.4425641768663897 0.6149457166128901 -0.58420989708457471 0.25798259770018267
decision_type=2 2 2 2 2 2 2 2 2 2 2 2 2 2 2 2 2 2 2 2 2 2 2 2 2 2 2 2 2 2
left_child=1 3 4 5 11 21 7 -6 -7 10 23 15 -13 -14 16 -3 -15 -18 -16 -20 -5 22 -1 -8 25 26 -4 28 -22 -30
right_child=-2 2 24 20 6 8 9 -9 -10 -11 -12 12 13 14 18 -17 17 -19 19 -21 27 -23 -24 -25 -26 -27 -28 -29 29 -31
leaf_value=0.0013592891048831053 -0.0097851690946266674 0.026129237387491313 0.011778188300062005 0.021695571914315225 0.024672438629074644 0.021493227648564053 0.011578303487159504 0.0080034124803656567 0.003432608315048285 -0.0067164983936165591 0.039002231937711657 -0.0035696517010202545 0.032407412542043816 0.032065800280825611 -0.007395461759421392 0.0068305459215996737 0.0075113171125592518 0.035132780454375533 0.012752374006366288 -0.003573345773149916 -0.006615494153931159 -0.0079447025534672994 0.038626810535788536 -0.010624164772680265 -0.010690045047007251 -0.0067971623419351762 -0.0026968354562278609 -0.01047548996303572 0.015570851973549196 -0.0042403393986019475
leaf_weight=117 855 115 337 30 471 244 78 371 209 173 69 829 137 103 403 310 269 55 216 376 1923 312 20 87 356 1101 568 491 291 684
leaf_count=117 855 115 337 30 471 244 78 371 209 173 69 829 137 103 403 310 269 55 216 376 1923 312 20 87 356 1101 568 491 291 684
internal_value=0 0.000778624 0.00304097 -0.00258479 0.00698845 0.00489422 0.0128887 0.0173278 0.0131606 0.00370517 0.0114101 0.00436868 0.00300116 0.00649519 0.00399873 0.0120525 0.0169921 0.0122001 -0.00157732 0.00238334 -0.0045579 -0.00344582 0.0067998 -0.000128453 -0.00374762 -0.00251557 0.00269331 -0.0047903 -0.00382708 0.00167254
internal_weight=0 10745 6424 4321 4062 902 1249 842 453 407 234 2813 2388 1559 1422 425 427 324 995 592 3419 449 137 165 2362 2006 905 3389 2898 975
internal_count=11600 10745 6424 4321 4062 902 1249 842 453 407 234 2813 2388 1559 1422 425 427 324 995 592 3419 449 137 165 2362 2006 905 3389 2898 975
is_linear=0
shrinkage=0.1


Tree=8
num_leaves=31
num_cat=0
split_feature=7 3 7 7 6 8 8 0 8 8 8 4 7 3 4 6 8 8 8 6 8 8 8 6 8 4 8 8 4 8
split_gain=7.18459 6.84884 9.91952 9.1393 4.97951 14.1413 7.62835 5.27692 5.13814 5.08899 4.21583 2.8898 2.61254 3.05234 2.5196 2.51962 3.51408 3.05827 2.83171 1.80467 1.78893 4.25824 3.65493 1.87567 1.78611 5.27386 2.61089 1.78331 1.76946 3.27487
threshold=1.7423177150917672 -0.54585236709129747 -1.1501050869421574 -1.5108480428502153 0.24796402500062423 0.7671594404830574 -0.99411290782371142 -0.91590074563811019 0.081471125912792805 0.37574074574293753 0.31280971835986104 0.33525296919668296 -1.347325517615148 -1.1208942217070921 -0.52635910819466103 -0.81313488159905412 -1.3681780643733827 -1.160494496206854 -1.1493166938297532 0.84285133187338335 -0.95856749626453153 -1.0907310371207746 1.0000000180025095e-35 8.2621143613616237 1.6751882165868242 0.72803735640476541 1.11411842626826 -0.86801332475704551 1.1571161799582705 -1.2441743192524231
decision_type=2 2 2 2 2 2 2 2 2 2 2 2 2 2 2 2 2 2 2 2 2 2 2 2 2 2 2 2 2 2
left_child=1 3 -3 -1 6 7 14 10 27 -10 20 -11 13 -5 15 16 -4 -17 -18 -13 21 -6 23 -22 25 26 -7 28 29 -9
right_child=-2 2 4 12 5 24 -8 8 9 11 -12 19 -14 -15 -16 17 18 -19 -20 -21 22 -23 -24 -25 -26 -27 -28 -29 -30 -31
leaf_value=0.016442592518623036 -0.0090832252671689175 0.026604107008227764 -0.0013972114275854369 -0.0051844755620988683 0.014983029060470493 0.018799213339623654 -0.0043207779417431908 0.014375175765078319 0.031319779920606659 0.033205050141064091 -0.0066632136288142328 0.0050950794011126012 -0.010730801851475714 0.013527289870303275 0.016278002379096056 0.01259184795720824 0.024764607456880947 -0.0090067232811921524 0.0071987292557120488 0.015987816112799473 0.02879557701183812 -0.0057425250750508666 0.0045742662853444933 0.00037375599744596651 -0.007140283241451527 -0.0037435356797730027 0.0036318697129380396 -0.0081403252473101033 0.021828751979539027 -0.014248955978647525
leaf_weight=184 810 159 325 730 172 152 2639 95 208 67 272 265 900 99 173 87 129 266 318 357 136 234 240 28 483 1390 448 100 65 69
leaf_count=184 810 159 325 730 172 152 2639 95 208 67 272 265 900 99 173 87 129 266 318 357 136 234 240 28 483 1390 448 100 65 69
internal_value=0 0.000681873 0.00185143 -0.0047453 0.00139999 0.00356873 -0.00123368 0.00919836 0.0136904 0.017611 0.00410852 0.0134725 -0.00700011 -0.0029499 0.00504278 0.00331506 0.0065152 -0.00368356 0.0122681 0.011347 0.0077257 0.00303776 0.0124369 0.0239431 -0.00168529 -0.000361285 0.00747426 0.00300091 0.00786608 0.0023321
internal_weight=0 10790 8877 1913 8718 4781 3937 2308 1226 897 1082 689 1729 829 1298 1125 772 353 447 622 810 406 404 164 2473 1990 600 329 229 164
internal_count=11600 10790 8877 1913 8718 4781 3937 2308 1226 897 1082 689 1729 829 1298 1125 772 353 447 622 810 406 404 164 2473 1990 600 329 229 164
is_linear=0
shrinkage=0.1


Tree=9
num_leaves=31
num_cat=0
split_feature=7 3 7 7 3 7 7 144 3 7 3 7 7 7 3 7 3 7 3 3 7 3 7 3 3 7 7 7 7 7
split_gain=5.83032 5.63383 5.93844 5.57923 4.28315 14.1714 8.36616 4.21579 2.85731 5.36141 3.3717 4.91913 2.88846 2.74045 5.69697 3.37021 2.65205 7.3016 8.11304 5.5339 5.85809 4.70365 3.05057 2.88093 3.11542 2.62389 2.39902 2.20239 2.04677 2.03608
threshold=1.7530918038980337 -0.19398499394178542 -1.5339608785837362 -1.1219832450092324 1.0000000180025095e-35 0.95733188611045328 0.086951427331325284 1.0000000180025095e-35 -1.1208942217070921 -0.24372699031909087 -0.41357714657312744 -0.599670961252038 -1.4128206364111353 0.88633421123797129 0.44164518401087727 0.55937316925755354 0.11323435537294924 -0.38255101957722054 0.27832013479176987 0.44164518401087727 -0.14271728249504032 0.44164518401087727 -0.67780935775050588 1.974691342411323 1.0470085628802064 -0.92770311147635365 1.4632205101278812 0.61061834798521419 -1.4588992930211711 -1.0239978428150109
decision_type=2 2 2 2 2 2 2 2 2 2 2 2 2 2 2 2 2 2 2 2 2 2 2 2 2 2 2 2 2 2
left_child=1 2 -1 -3 5 27 7 16 28 10 12 -12 -10 14 15 -8 25 21 -19 -20 -21 22 -18 24 -22 -6 -7 -5 -4 -14
right_child=-2 3 8 4 6 26 13 -9 9 -11 11 -13 29 -15 -16 -17 17 18 19 20 23 -23 -24 -25 -26 -27 -28 -29 -30 -31
leaf_value=0.017843955713391736 -0.0084372494605923793 0.031656730757094922 0.0017910254113190701 0.036947730657729237 0.005991371459087496 0.0069262713447590975 0.011712139099228965 0.0179652734305174 0.0308092471074175 -0.0087230594826605001 0.025449087247839126 0.0032168992528054138 0.00079432963593744309 -0.010061305339088241 -0.0066718665959626432 -0.00059390027036133235 0.036722466281869197 0.035221515223383904 -0.0079645483401078829 0.015373386300412226 0.00065496225876087518 0.042635782659053802 0.0079214792304160911 -0.0071224904323427653 0.019726462574167686 -0.0086061774329902266 -0.0019385006835235194 0.019422640367546706 -0.0086254824608859044 -0.0088150589758194189
leaf_weight=138 765 64 226 110 199 530 345 213 27 659 127 460 677 502 1128 627 44 72 493 356 387 65 224 335 110 323 720 206 1141 327
leaf_count=138 765 64 226 110 199 530 345 213 27 659 127 460 677 502 1128 627 44 72 493 356 387 65 224 335 110 323 720 206 1141 327
internal_value=0 0.000595708 -0.00251825 0.00226549 0.00199635 0.00660314 0.00066605 0.00443825 -0.00328938 -0.00111972 0.00197707 0.00802693 -0.00146742 -0.00342365 -0.00183693 0.00377398 0.00333348 0.00492868 0.00235009 0.000942148 0.00463828 0.0185031 0.01265 4.48882e-05 0.00487602 -0.00304121 0.00182016 0.0255231 -0.00690337 -0.00233542
internal_weight=0 10835 3782 7053 6989 1566 5423 2821 3644 2277 1618 587 1031 2602 2100 972 2608 2086 1753 1681 1188 333 268 832 497 522 1250 316 1367 1004
internal_count=11600 10835 3782 7053 6989 1566 5423 2821 3644 2277 1618 587 1031 2602 2100 972 2608 2086 1753 1681 1188 333 268 832 497 522 1250 316 1367 1004
is_linear=0
shrinkage=0.1


Tree=10
num_leaves=31
num_cat=0
split_feature=7 3 7 7 8 4 8 0 8 8 6 8 0 8 8 8 6 4 8 8 4 7 3 8 4 4 7 8 6 8
split_gain=4.72646 4.74753 7.61815 6.28326 3.38805 5.08287 8.67671 5.16444 2.81367 2.09765 2.90552 2.00948 1.88581 1.85705 2.97347 2.74227 1.8327 2.0386 1.82203 1.73263 1.61279 1.5671 2.29826 1.54333 1.73505 1.51303 1.50974 1.42864 1.17435 1.69608
threshold=1.7423177150917672 -0.54585236709129747 -1.1818602960553635 -1.4799119165117549 -1.1044517895386659 0.25719631365704576 0.79437738927129731 -0.91590074563811019 -1.3681780643733827 0.68099255640858325 1.2935427022534964 -1.2735300227452835 -0.73715352751982255 0.33480204453680651 -0.95856749626453153 0.043424681071736797 0.68978271409119019 0.5003123597150777 -0.89042481852313216 -1.160494496206854 -0.52635910819466103 -1.347325517615148 -1.1208942217070921 0.40879909627321226 0.33525296919668296 -0.81459336182304798 -1.5917377173869307 -0.94931786479748081 8.2621143613616237 -0.27561774327665683
decision_type=2 2 2 2 2 2 2 2 2 2 2 2 2 2 2 2 2 2 2 2 2 2 2 2 2 2 2 2 2 2
left_child=1 3 -3 26 8 27 7 13 -4 10 23 12 -10 14 -7 28 17 20 -12 -18 25 22 -5 -9 -25 -13 -1 -6 29 -16
right_child=-2 2 4 21 5 6 -8 9 11 -11 18 16 -14 -15 15 -17 19 -19 -20 -21 -22 -23 -24 24 -26 -27 -28 -29 -30 -31
leaf_value=0.026529857872620872 -0.0073672820197671282 0.027325851872431497 0.00068363054005939311 -0.0050993700851598087 0.00094442281368141727 -0.004191391480950794 -0.0014851777840987927 0.022425906992280528 0.0016643770349522432 0.0046561737761318285 0.027636963278055194 0.019145591945853087 0.034831497905155023 -0.0057750439727775917 0.038085992075502874 0.0026688814358643616 0.043911253374356495 -0.0076289455162707803 -0.0053728511769269762 0.012191711375307219 0.029599884731902018 -0.0091185869191928465 0.011276539302351085 0.030985054497917493 0.010858891609279281 0.0032320650495128544 0.0066843273299531103 -0.0038481021894413536 -0.00031135639042726587 0.015308633895046945
leaf_weight=46 810 113 471 638 845 255 2393 287 24 304 20 80 60 240 46 258 26 86 102 51 36 900 99 48 398 236 230 2357 28 113
leaf_count=46 810 113 471 638 845 255 2393 287 24 304 20 80 60 240 46 258 26 86 102 51 36 900 99 48 398 236 230 2357 28 113
internal_value=0 0.000553058 0.00152681 -0.00396549 0.00119416 0.000460936 0.00263098 0.00732368 0.00646656 0.0117908 0.0143276 0.0110137 0.0253552 0.00181582 0.0044184 0.0093521 0.00867455 0.00617334 3.85938e-05 0.0229022 0.00954548 -0.00631872 -0.00289962 0.0167058 0.0130249 0.00726081 0.00999192 -0.00258337 0.0185728 0.0218983
internal_weight=0 10790 8877 1913 8764 7694 4492 2099 1070 1159 855 599 84 940 700 445 515 438 122 77 352 1637 737 733 446 316 276 3202 187 159
internal_count=11600 10790 8877 1913 8764 7694 4492 2099 1070 1159 855 599 84 940 700 445 515 438 122 77 352 1637 737 733 446 316 276 3202 187 159
is_linear=0
shrinkage=0.1


Tree=11
num_leaves=31
num_cat=0
split_feature=144 7 4 8 6 6 8 7 8 8 8 8 7 8 8 4 8 4 8 8 0 4 8 8 6 8 8 4 8 8
split_gain=3.98044 3.31207 2.97821 6.56087 3.11686 2.66275 2.23243 1.91044 1.86143 2.69719 1.81798 4.76427 1.77608 1.70683 1.5372 1.96535 1.9366 4.32979 4.24021 1.46754 1.78524 1.4415 1.30485 1.25932 1.11076 3.87662 1.10915 1.08862 7.23461 2.47012
threshold=1.0000000180025095e-35 1.7710276164527146 -0.52635910819466103 0.91289003897450638 0.76704005014158183 1.0558142975238796 0.51454110676058396 0.84874041208940065 -1.097325940523264 -1.3681780643733827 -0.90721946659472585 -0.99861197328049456 0.70270215377678291 -1.2735300227452835 -1.0246422805661675 1.0000000180025095e-35 -0.37185862174349305 0.33525296919668296 0.19369626177888286 -1.4017953050225127 0.87157143554476668 -0.81459336182304798 -1.1387117538244789 -1.4609817686092603 0.27892994780995189 1.5784443370130183 -0.20076838410899706 -0.58420989708457471 0.2851726019824799 -0.14448814914029554
decision_type=2 2 2 2 2 2 2 2 2 2 2 2 2 2 2 2 2 2 2 2 2 2 2 2 2 2 2 2 2 2
left_child=1 2 8 4 14 6 7 -6 9 23 11 -7 -2 -11 15 -4 -16 -18 26 -17 22 -15 -21 -1 25 -5 -19 -10 29 -29
right_child=12 -3 3 24 5 10 -8 -9 27 13 -12 -13 -14 21 16 19 17 18 -20 20 -22 -23 -24 -25 -26 -27 -28 28 -30 -31
leaf_value=0.0012048641301782121 0.0095038540663238309 -0.0073802428252317687 0.017898897372010187 0.0067831365178596783 0.022388428442605676 -0.0010548876987233984 0.0076437336031172642 -0.0026751911387379681 -0.0048522395522549513 0.028912314849022111 -0.0055950835808572102 0.031652464109976762 -0.00075801797643996398 0.018001679595724879 -0.0030954288101445733 0.022997305976847807 0.021781239717414507 0.02639343955864509 -0.0012906343219052413 0.033280779421329502 -0.0063593322756670184 0.0020359436174004629 0.0052032963325473252 -0.0098041910018702473 -0.0053550401449938608 -0.0051747807519377789 0.0096686060765039245 0.032207127975729798 -0.0048841366715139155 0.0083318869380477386
leaf_weight=293 604 660 127 423 232 165 468 35 1814 39 185 61 234 79 781 33 114 48 1096 20 155 199 96 161 1049 755 228 52 1134 260
leaf_count=293 604 660 127 423 232 165 468 35 1814 39 185 61 234 79 781 33 114 48 1096 20 155 199 96 161 1049 755 228 52 1134 260
internal_value=0 -0.000516907 -6.85004e-05 0.00133061 0.00383279 0.00820192 0.0118065 0.0191029 -0.00217566 0.00224308 0.00175585 0.0077732 0.00663837 0.00932134 0.00197696 0.00745129 0.000936182 0.00305508 0.00149912 0.00308667 0.000662124 0.00657297 0.0100442 -0.00269923 -0.00298838 -0.000880894 0.0125773 -0.00322071 -0.00117396 0.0123111
internal_weight=0 10762 10102 6071 3844 1146 735 267 4031 771 411 226 838 317 2698 431 2267 1486 1372 304 271 278 116 454 2227 1178 276 3260 1446 312
internal_count=11600 10762 10102 6071 3844 1146 735 267 4031 771 411 226 838 317 2698 431 2267 1486 1372 304 271 278 116 454 2227 1178 276 3260 1446 312
is_linear=0
shrinkage=0.1


Tree=12
num_leaves=31
num_cat=0
split_feature=144 7 3 7 7 7 7 3 7 3 5 7 7 7 3 5 7 3 7 3 3 7 7 7 3 7 7 4 8 7
split_gain=3.22416 2.69728 2.57908 5.14368 4.23687 2.79028 7.59033 3.95941 4.83325 2.91729 4.49241 6.57155 2.63841 2.02035 2.52637 3.47246 2.43399 2.04124 2.01674 2.40076 1.56513 1.43862 1.39361 1.2441 1.06578 1.41905 1.05398 1.0095 1.32213 0.968845
threshold=1.0000000180025095e-35 1.7797014930160444 -0.54585236709129747 -1.1818602960553635 -1.4517165671503269 -0.30568325148572967 -0.86005527513135593 0.44164518401087727 -0.56911287311730596 -0.19398499394178542 0.21636940053577028 0.61061834798521419 -1.0377962372511063 0.086951427331325284 0.27832013479176987 0.52971269804023868 -0.11358733868550543 1.974691342411323 1.4632205101278812 0.11323435537294924 1.0470085628802064 0.70270215377678291 -1.5574202493373417 1.0629725619301802 0.11323435537294924 0.054419139688232553 -0.72468609501285752 0.25719631365704576 0.36596016866297432 -0.43490931079363765
decision_type=2 2 2 2 2 2 2 2 2 2 2 2 2 2 2 2 2 2 2 2 2 2 2 2 2 2 2 2 2 2
left_child=1 2 4 -4 22 6 12 8 26 -7 11 24 -5 14 -12 -16 -17 20 19 23 -18 27 -1 -13 -11 -26 -8 -2 -29 -9
right_child=21 -3 3 5 -6 9 7 29 -10 10 13 18 -14 -15 15 16 17 -19 -20 -21 -22 -23 -24 -25 25 -27 -28 28 -30 -31
leaf_value=0.017128788245951428 0.0040367837711100417 -0.0068847030567267924 0.023942930786375036 0.0066604551704296348 -0.0058803599757617925 -0.0063731211029318738 0.028211276776650376 0.042848093062639238 0.0026451253074628767 0.028841324242734417 0.023653141599386297 0.013760892749410267 -0.0052158023877657026 -0.0040346133771690411 -0.0087750101087273238 0.0094493218563239563 0.00049870640679893137 -0.0071932617163554778 -0.0014921495449929079 -0.0041921800886100657 0.014616107035170099 -0.00068221616813202558 0.002670059578069772 0.0048930420925416404 0.035993267692949464 0.0077283127909490408 0.014416846274486129 0.020808375888015544 0.0075986505993425324 0.021438486036737411
leaf_weight=85 272 617 94 245 1479 778 85 26 630 97 47 258 791 1987 338 368 353 282 811 199 101 234 309 409 23 78 159 117 215 113
leaf_count=85 272 617 94 245 1479 778 85 26 630 97 47 258 791 1987 338 368 353 282 811 199 101 234 309 409 23 78 159 117 215 113
internal_value=0 -0.000465216 -7.4795e-05 0.000683905 -0.00342555 0.00041656 0.00361121 0.0097663 0.00727307 -0.000651452 0.000180441 0.00412557 -0.00240723 -0.00194762 0.000837384 9.37361e-05 0.00280899 -0.000511182 0.00209135 0.00544725 0.00363936 0.00597453 0.00578933 0.00832319 0.0213549 0.0141649 0.0192223 0.00855347 0.0122539 0.0254432
internal_weight=0 10762 10145 8272 1873 8178 2049 1013 874 6129 5351 1875 1036 3476 1489 1442 1104 736 1677 866 454 838 394 667 198 101 244 604 332 139
internal_count=11600 10762 10145 8272 1873 8178 2049 1013 874 6129 5351 1875 1036 3476 1489 1442 1104 736 1677 866 454 838 394 667 198 101 244 604 332 139
is_linear=0
shrinkage=0.1


Tree=13
num_leaves=31
num_cat=0
split_feature=144 7 5 7 3 7 7 7 7 3 5 7 7 7 3 3 7 3 3 7 3 3 7 7 3 5 7 7 3 7
split_gain=2.61157 2.1848 2.11653 5.2315 4.31912 3.12109 2.12688 3.00197 2.98404 1.95496 3.53513 5.37084 1.91895 1.75584 2.02953 3.00876 2.35827 1.68746 1.39477 1.27741 1.6599 1.25168 1.48138 1.16703 0.944186 0.999961 0.992807 0.911481 1.79568 1.4208
threshold=1.0000000180025095e-35 1.7797014930160444 -0.3867781818524238 -0.33955967496430195 0.44164518401087727 -1.5108480428502153 -1.1501050869421574 -0.86005527513135593 -0.599670961252038 -0.19398499394178542 0.21636940053577028 0.72097400029033398 -0.95361973055419502 0.086951427331325284 0.27832013479176987 0.44164518401087727 -0.12431942324691304 1.974691342411323 1.0470085628802064 1.5160513490989593 0.11323435537294924 0.11323435537294924 0.15855816375425913 0.6828236448973849 -0.19398499394178542 0.32065874306384962 0.065445253963651334 0.92311942867301144 0.44164518401087727 0.70270215377678291
decision_type=2 2 2 2 2 2 2 2 2 2 2 2 2 2 2 2 2 2 2 2 2 2 2 2 2 2 2 2 2 2
left_child=1 2 5 4 6 -1 -4 12 -9 -5 11 21 -8 14 -12 -16 -17 18 -18 20 -13 -11 -23 24 -2 26 -26 28 29 -15
right_child=23 -3 3 9 -6 -7 7 8 -10 10 13 19 -14 27 15 16 17 -19 -20 -21 -22 22 -24 -25 25 -27 -28 -29 -30 -31
leaf_value=0.010424034156133993 0.00053803464323458122 -0.0061962326988577844 0.02631417142057961 -0.0051025305657186552 0.025883655235744443 -0.0035785452125372259 0.0070480078999531738 0.018567917475373903 0.0041801369369602508 0.022390232490081537 0.021287827352260022 0.0061111214443984301 -0.0058520346386396627 0.0072463306311715677 -0.0071345229366131906 0.0094392407186708743 0.00057855020471746449 -0.0061024246017615568 0.013670758404231704 -0.0016832541296705362 -0.0053332520879226771 0.030064500921538902 0.0044582633771257018 -0.00047936520485345981 0.022382548345946787 0.0040395487812929787 0.0096052240626401438 -0.0090789935530576488 -0.0052869355118759552 -0.002377889217469991
leaf_weight=171 139 617 44 799 104 2303 169 199 523 152 47 695 363 252 412 367 374 304 104 728 155 28 117 242 89 176 192 266 1077 392
leaf_count=171 139 617 44 799 104 2303 169 199 523 152 47 695 363 252 412 367 374 304 104 728 155 28 117 242 89 176 192 266 1077 392
internal_value=0 -0.000418695 -6.73155e-05 0.000752961 0.00627516 -0.0026107 0.00470406 0.00394581 0.00814574 -0.000482024 0.00019289 0.00371302 -0.00175409 -0.00164306 0.000813623 0.000197167 0.00282611 -0.000277494 0.00342706 0.00139111 0.00402421 0.0160496 0.00940292 0.00537708 0.00775503 0.00995013 0.0136521 -0.00363115 -0.00278913 0.00138811
internal_weight=0 10762 10145 7671 1402 2474 1298 1254 722 6269 5470 1875 532 3595 1608 1561 1149 782 478 1578 850 297 145 838 596 457 281 1987 1721 644
internal_count=11600 10762 10145 7671 1402 2474 1298 1254 722 6269 5470 1875 532 3595 1608 1561 1149 782 478 1578 850 297 145 838 596 457 281 1987 1721 644
is_linear=0
shrinkage=0.1


Tree=14
num_leaves=31
num_cat=0
split_feature=144 7 3 7 3 7 7 7 3 7 7 3 7 5 7 7 3 7 7 5 7 7 7 3 3 3 8 4 8 3
split_gain=2.11537 1.86409 2.20524 2.80226 4.79344 2.16912 3.37676 2.5054 1.99588 2.18247 2.16056 1.60204 1.80865 3.24956 4.30163 1.31024 1.95328 1.69978 1.40165 2.23342 1.61812 1.24351 1.23546 1.88356 1.21392 0.994404 0.978417 1.01074 1.02545 0.89481
threshold=1.0000000180025095e-35 -1.5574202493373417 -1.1208942217070921 -0.29822749802330356 0.44164518401087727 -0.86005527513135593 -0.56911287311730596 -1.0134862805391116 -0.54585236709129747 -1.3984761867918762 -1.2250091565865022 -0.19398499394178542 1.7619021942571538 0.21636940053577028 0.61061834798521419 0.86257030970914028 0.27832013479176987 0.36225774919670989 0.095572798588581212 0.52971269804023868 -0.10309677853203555 -1.4675941717069299 1.3681334008289128 0.11323435537294924 1.974691342411323 1.0470085628802064 -1.2735300227452835 0.25719631365704576 0.72117675595426001 1.974691342411323
decision_type=2 2 2 2 2 2 2 2 2 2 2 2 2 2 2 2 2 2 2 2 2 2 2 2 2 2 2 2 2 2
left_child=1 -1 21 4 5 7 -7 8 9 -4 -10 -5 13 14 -13 16 17 -15 19 -18 29 -3 23 -16 25 -22 -2 -28 -29 -21
right_child=26 2 3 11 -6 6 -8 -9 10 -11 -12 12 -14 15 22 -17 18 -19 -20 20 24 -23 -24 -25 -26 -27 27 28 -30 -31
leaf_value=0.014373505905489713 0.02288679113161975 0.0026952211366891351 0.021347895163942029 -0.0053264736513884171 0.020266035522940578 0.015724510375551542 0.0019678246379498886 -0.0048788478978718771 0.026135203595224185 -0.004133925833556153 0.0052087717719391316 0.017532952541028001 -0.0052268363425447203 0.015278021292362968 0.0079082429192240868 -0.0067843372428919692 -0.0074493900717546545 0.0016128024793188825 -0.004858200424807944 0.012693896192090158 -0.0001266806968565203 -0.0055179027013846395 -0.00071187101539245238 -0.0034561326478645391 -0.0062857235999277828 0.011049312385407711 0.00051963707709871715 0.011978264375307419 0.0020251018883455135 0.0030921558713950955
leaf_weight=85 29 219 37 765 149 244 664 706 57 367 367 198 703 117 546 430 318 410 1039 169 376 1165 846 199 257 101 389 235 185 228
leaf_count=85 29 219 37 765 149 244 664 706 57 367 367 198 703 117 546 430 318 410 1039 169 376 1165 846 199 257 101 389 235 185 228
internal_value=0 -0.000376825 -0.000494253 6.03641e-05 0.0028532 0.00179074 0.00566456 -0.000502229 0.00322953 -0.00180019 0.00802199 -0.00101935 -0.000464362 0.000175305 0.00363299 -0.00162028 -0.000883781 0.00464664 -0.00205522 -4.53474e-05 0.00203643 -0.00421828 0.00190313 0.00487266 -0.000745344 0.00223972 0.00483937 0.00419243 0.00759413 0.00717955
internal_weight=0 10762 10677 9293 2591 2442 908 1534 828 404 424 6702 5937 5234 1789 3445 3015 527 2488 1449 1131 1384 1591 745 734 477 838 809 420 397
internal_count=11600 10762 10677 9293 2591 2442 908 1534 828 404 424 6702 5937 5234 1789 3445 3015 527 2488 1449 1131 1384 1591 745 734 477 838 809 420 397
is_linear=0
shrinkage=0.1


Tree=15
num_leaves=31
num_cat=0
split_feature=7 3 3 7 7 7 7 144 7 3 7 7 5 7 7 7 3 7 7 3 7 7 3 3 3 7 7 7 7 7
split_gain=1.76693 2.20182 3.18866 3.94556 3.80048 2.09223 1.83564 1.54095 1.40392 2.22608 1.79246 1.32589 1.79658 1.93463 1.32017 1.238 1.17919 3.68296 3.18963 1.69104 1.49915 1.22164 1.19395 1.13175 0.936102 1.50556 1.49589 0.849252 0.82542 0.748598
threshold=1.6245693156915095 -0.19398499394178542 1.0000000180025095e-35 0.92311942867301144 0.054419139688232553 -1.5339608785837362 -1.1501050869421574 1.0000000180025095e-35 0.90674827423931814 0.44164518401087727 0.41761934392052685 -0.15924595284695381 -0.46794296391588303 -1.2839936174293853 -1.3307338408959464 -0.23307891424740076 0.44164518401087727 -0.19452951852829378 -0.23307891424740076 1.974691342411323 -0.32958366681035162 -0.39349312536292175 1.0470085628802064 -1.1208942217070921 0.27832013479176987 -0.72468609501285752 -0.90904272569785938 0.454163036947629 -1.4128206364111353 -0.29822749802330356
decision_type=2 2 2 2 2 2 2 2 2 2 2 2 2 2 2 2 2 2 2 2 2 2 2 2 2 2 2 2 2 2
left_child=1 5 3 27 6 -1 -4 16 9 10 -6 12 14 -14 23 -9 18 21 20 22 24 -18 -19 -7 26 -26 -8 -3 -25 -15
right_child=-2 2 4 -5 8 11 7 15 -10 -11 -12 -13 13 29 -16 -17 17 19 -20 -21 -22 -23 -24 28 25 -27 -28 -29 -30 -31
leaf_value=0.010573328622948781 -0.0036849313366178848 0.028836693420358328 0.022311970333055577 0.0029065945992007292 0.0098786745682137751 -0.002427624963645493 0.0041193812109501888 0.003879089672936634 -0.0074236406470244796 -0.0040328029615454564 4.685380900599949e-06 -0.0082820474002204963 0.029904809399791388 0.0021816218474083808 -0.0065849068121555309 0.019574068990248713 0.027759906002935375 0.0024380968632274408 0.022457630468196557 -0.0036178371104353502 -0.0061154786777004363 0.011027994284430813 0.014667709084848563 0.023114637726986853 0.025546540839202478 0.0031656491617543985 -0.0064643098746607315 0.01402367498706807 0.003491220415470217 -0.0026202705162639613
leaf_weight=138 1170 46 49 871 236 879 257 108 424 1248 832 305 23 1040 794 94 53 333 61 401 391 247 105 27 33 337 278 244 104 472
leaf_count=138 1170 46 49 871 236 879 257 108 424 1248 832 305 23 1040 794 94 53 333 61 401 391 247 105 27 33 337 278 244 104 472
internal_value=0 0.000413362 0.00150925 0.00627038 0.000501832 -0.00151298 0.00313027 0.0027819 -0.00213332 -0.0011648 0.00218658 -0.00197069 -0.00139419 0.00112048 -0.00353388 0.0111827 0.00210203 0.00447448 0.000110704 0.00107419 -0.000941119 0.013984 0.00536985 -0.00113535 0.00129443 0.00516178 -0.00138018 0.0163733 0.00753574 0.000682618
internal_weight=0 10430 6648 1161 5487 3782 2747 2698 2740 2316 1068 3644 3339 1535 1804 202 2496 1139 1357 839 1296 300 438 1010 905 370 535 290 131 1512
internal_count=11600 10430 6648 1161 5487 3782 2747 2698 2740 2316 1068 3644 3339 1535 1804 202 2496 1139 1357 839 1296 300 438 1010 905 370 535 290 131 1512
is_linear=0
shrinkage=0.1


Tree=16
num_leaves=31
num_cat=0
split_feature=7 5 7 3 7 7 7 7 3 5 7 7 3 7 3 7 3 5 7 7 7 7 7 3 7 7 7 7 3 7
split_gain=1.50854 1.63121 3.27844 2.55314 2.00281 1.41834 2.4715 2.19461 1.2607 2.05839 6.70899 2.33575 1.61753 2.35064 1.52422 1.42684 1.88182 1.48191 1.95511 1.11816 1.06039 0.947303 0.923201 1.0779 0.930353 0.71917 0.691142 0.669971 0.65372 1.41195
threshold=1.7935733948806425 -0.3867781818524238 -0.3596482050679935 0.44164518401087727 -1.4799119165117549 -0.86005527513135593 -0.99537194994378086 -0.67780935775050588 -0.19398499394178542 0.238045522335434 0.66274561585490821 -0.15442596574941356 0.11323435537294924 1.2549109588121843 0.11323435537294924 0.32631261665884481 1.0470085628802064 2.3578776748910166 -0.076518592597668911 0.28970591726445433 -0.15924595284695381 0.23864975763865823 0.11250050926665271 0.44164518401087727 -0.016557533061820291 -1.1818602960553635 -1.5917377173869307 0.86257030970914028 -1.1208942217070921 -1.0377962372511063
decision_type=2 2 2 2 2 2 2 2 2 2 2 2 2 2 2 2 2 2 2 2 2 2 2 2 2 2 2 2 2 2
left_child=1 4 3 5 26 6 25 -7 -4 10 11 -10 13 -12 -13 16 22 18 -18 -16 -19 -20 23 -11 -25 -3 -1 -14 -6 -30
right_child=-2 2 8 -5 28 7 -8 -9 9 15 12 14 27 -15 19 -17 17 20 21 -21 -22 -23 -24 24 -26 -27 -28 -29 29 -31
leaf_value=0.017292819331582315 -0.0051609525903714478 0.023939516508218017 -0.0035904052215617772 0.021620163917541506 -0.0044872049416691609 0.018683096043489597 -0.0035330535179270007 0.0045516590387318142 0.040140839723440319 -0.0050212597339036368 0.0079851085301941658 0.019213954573358172 -0.00040360862660183332 -0.00053126627090240334 0.0128404763047066 -0.0072000057645572688 0.022504539197931689 0.005725593531193833 0.0083218265117451489 0.0037740236761702934 -0.0040511400735831118 -0.00076766193385516669 -0.0073978219708869227 0.0055126603215549753 -0.0022106089687857506 0.0075291613876886142 0.0038653152833696526 -0.0057643568509187226 0.0017066514779065748 -0.005753187195879866
leaf_weight=46 540 33 841 90 1229 135 422 591 26 487 442 134 412 1215 225 372 66 159 247 344 367 214 346 282 349 140 230 537 671 408
leaf_count=46 540 33 841 90 1229 135 422 591 26 487 442 134 412 1215 225 372 66 159 247 344 367 214 346 282 349 140 230 537 671 408
internal_value=0 0.000251981 0.000922526 0.00532332 -0.00194753 0.00421301 0.000593509 0.00717941 4.3614e-05 0.00053465 0.00222725 0.0107074 -0.00014498 0.00174045 0.00961884 -0.00141925 -0.000564887 0.00265918 0.00640704 0.00735918 -0.00109582 0.00410241 -0.00288383 -0.00148684 0.00124099 0.0106595 0.00610323 -0.00343704 -0.00291027 -0.00111412
internal_weight=0 11060 8476 1411 2584 1321 595 726 7065 6224 3335 729 2606 1657 703 2889 2517 1053 527 569 526 461 1464 1118 631 173 276 949 2308 1079
internal_count=11600 11060 8476 1411 2584 1321 595 726 7065 6224 3335 729 2606 1657 703 2889 2517 1053 527 569 526 461 1464 1118 631 173 276 949 2308 1079
is_linear=0
shrinkage=0.1


Tree=17
num_leaves=31
num_cat=0
split_feature=7 5 7 7 7 7 3 7 3 5 7 7 7 3 5 7 3 7 7 7 3 7 3 7 7 3 7 7 3 7
split_gain=1.22616 1.30672 2.69009 2.12934 2.06111 1.68027 1.35468 1.57045 0.967802 1.55614 5.54904 1.58771 1.18963 1.63561 1.34801 1.48975 1.17495 2.68361 1.00651 1.0018 0.964303 0.785013 0.904428 0.836384 0.705565 0.700988 0.649636 0.587308 0.542012 1.03182
threshold=1.7999685411603854 -0.3867781818524238 -0.38255101957722054 -0.86005527513135593 -0.95361973055419502 -1.4517165671503269 0.44164518401087727 -0.67780935775050588 -0.19398499394178542 0.238045522335434 0.48853301030329149 -0.15442596574941356 0.31555952997500786 1.0470085628802064 2.3578776748910166 -0.10309677853203555 0.11323435537294924 1.2143873635847167 -0.20847492782139479 0.82238274844054249 0.11323435537294924 0.11250050926665271 0.44164518401087727 -0.058215242900473821 -1.1818602960553635 -1.8137974522666103 0.23864975763865823 -0.15924595284695381 -1.1208942217070921 -1.0239978428150109
decision_type=2 2 2 2 2 2 2 2 2 2 2 2 2 2 2 2 2 2 2 2 2 2 2 2 2 2 2 2 2 2
left_child=1 5 3 4 24 25 7 -5 27 10 11 -10 13 21 15 -15 17 -12 -16 -18 -13 22 -11 -24 -3 -1 -17 -4 -7 -30
right_child=-2 2 8 6 -6 28 -8 -9 9 12 16 20 -14 14 18 26 19 -19 -20 -21 -22 -23 23 -25 -26 -27 -28 -29 29 -31
leaf_value=0.009873151152039605 -0.0048696873841261624 0.021545565354101587 -0.001241447645368749 0.016814786358563989 -0.0040883840955401587 -0.0044267592023009162 0.021936070848850239 0.0047098213317230365 0.036126755865720603 -0.0043018762916951598 0.0084236196234718248 0.022353311982311188 -0.0061922768464084095 0.022490191465028779 0.0077047416617305161 0.0077440906431790781 0.0012247549800597215 -0.00038899736503679731 -0.0029917412196087787 -0.0047534886601360883 0.008798654598788919 -0.0066580397739058987 0.0060835953850042201 -0.0014297708472316495 0.0057285873738851713 0.001159867494462312 -0.000111250729175729 -0.0067562709062982187 0.0010127007756187366 -0.0054942421942173192
leaf_weight=139 495 33 582 135 368 1099 69 520 26 528 470 61 410 52 111 262 494 1305 424 648 376 346 232 410 194 275 176 289 696 375
leaf_count=139 495 33 582 135 368 1099 69 520 26 528 470 61 410 52 111 262 494 1305 424 648 376 346 232 410 194 275 176 289 696 375
internal_value=0 0.000217064 0.00081442 0.00496627 0.000534158 -0.00175278 0.00860869 0.00720474 5.40345e-05 0.000484006 0.00194893 0.0121191 -0.00119388 -0.000387365 0.00269814 0.00648747 0.000334668 0.00194448 -0.000772471 -0.00216745 0.0106907 -0.00247354 -0.00123607 0.00128534 0.00802797 0.00408534 0.00458761 -0.00307128 -0.00286659 -0.00126564
internal_weight=0 11105 8521 1319 595 2584 724 655 7202 6331 3380 463 2951 2541 1025 490 2917 1775 535 1142 437 1516 1170 642 227 414 438 871 2170 1071
internal_count=11600 11105 8521 1319 595 2584 724 655 7202 6331 3380 463 2951 2541 1025 490 2917 1775 535 1142 437 1516 1170 642 227 414 438 871 2170 1071
is_linear=0
shrinkage=0.1


Tree=18
num_leaves=31
num_cat=0
split_feature=7 3 7 7 7 7 7 5 7 3 3 7 7 3 7 7 3 7 3 7 3 3 7 3 7 7 7 8 7 5
split_gain=1.07252 1.23284 2.7568 1.37184 1.17858 0.911351 4.01196 0.985434 1.0938 0.963253 2.40335 2.13948 1.42001 2.4324 2.59938 1.01914 1.28417 1.11751 1.06222 1.06518 0.753004 0.982921 0.736706 0.902986 0.867925 0.720892 0.70816 0.687156 0.684227 0.66907
threshold=-1.5917377173869307 -0.54585236709129747 -1.1219832450092324 -1.347325517615148 1.6066335031368282 -0.86005527513135593 -0.43490931079363765 0.34647703565712751 -0.72468609501285752 -0.19398499394178542 0.11323435537294924 0.87432099720837231 0.82238274844054249 0.27832013479176987 0.014210576297205483 0.3342829221207903 1.0470085628802064 -0.18155020686694379 1.974691342411323 0.23864975763865823 -1.1208942217070921 -1.8137974522666103 0.11250050926665271 0.44164518401087727 -0.058215242900473821 -1.2890131246900045 0.37665470412204244 -0.37185862174349305 -0.18833389241162993 2.3578776748910166
decision_type=2 2 2 2 2 2 2 2 2 2 2 2 2 2 2 2 2 2 2 2 2 2 2 2 2 2 2 2 2 2
left_child=-1 3 25 20 5 -4 7 8 -7 28 11 -11 13 14 27 16 22 29 19 -19 21 -2 23 -15 -25 -3 -16 -12 -8 -18
right_child=1 2 4 -5 -6 6 9 -9 -10 10 12 -13 -14 15 26 -17 17 18 -20 -21 -22 -23 -24 24 -26 -27 -28 -29 -30 -31
leaf_value=0.015239189374867991 0.002882163813449357 0.029419176209540595 -0.0022374775033171344 -0.00522338006077593 -0.0027633776746379115 0.018108239990996793 -0.00010115234254186867 0.026783617151280244 0.0060427518918426395 0.012912210168921063 0.032947582950194676 0.0025406140648314211 -0.0044145571633486917 -0.0037905988866939497 0.0079294748162331511 -0.0066247920166888005 0.024378727233180634 0.0079341403166667476 -0.0029897318837427602 -0.0009659538881387563 0.0084642981929290619 -0.0038664270546252323 -0.0061999719141257528 0.0061432244524921237 -0.0012867937476314581 0.009862572324092744 0.00135707116967681 0.014819150137296622 -0.0054145484219796135 0.0070356972123248292
leaf_weight=46 402 21 1013 900 1215 91 511 30 431 259 30 857 688 599 226 279 26 291 397 250 99 466 343 255 410 184 597 69 461 154
leaf_count=46 402 21 1013 900 1215 91 511 30 431 259 30 857 688 599 226 279 26 291 397 250 99 466 343 255 410 184 597 69 461 154
internal_value=0 -6.06719e-05 0.000392815 -0.00241361 0.000144767 0.000572177 0.000964537 0.00915903 0.00814612 0.00028961 0.000783379 0.00494764 -0.000223842 0.000510547 0.00500345 -0.000868433 -0.000279066 0.00232358 0.000938617 0.00382134 0.00020149 -0.000740928 -0.00208975 -0.000974392 0.00156231 0.0118659 0.00316189 0.0203126 -0.00262119 0.0095408
internal_weight=0 11554 9687 1867 9482 8267 7254 552 522 6702 5730 1116 4614 3926 922 3004 2725 1118 938 541 967 868 1607 1264 665 205 823 99 972 180
internal_count=11600 11554 9687 1867 9482 8267 7254 552 522 6702 5730 1116 4614 3926 922 3004 2725 1118 938 541 967 868 1607 1264 665 205 823 99 972 180
is_linear=0
shrinkage=0.1


Tree=19
num_leaves=31
num_cat=0
split_feature=7 3 7 7 7 1 8 6 6 8 3 7 8 8 8 8 4 8 0 8 3 7 0 8 4 4 4 8 4 7
split_gain=0.919387 1.14848 2.30124 0.99828 0.995732 0.683101 0.562696 1.3671 0.775131 0.68516 0.546524 0.708666 0.535544 1.12549 0.797405 0.774298 0.529884 0.522422 0.501767 0.745452 0.461756 0.764873 0.440516 0.392136 0.382233 2.24769 0.325239 0.837986 0.418072 0.314854
threshold=-1.5574202493373417 -0.54585236709129747 -1.1818602960553635 -1.3224064993527014 1.644290308652687 1.597444221293943 1.0207698041664985 0.8421209612211219 1.2943915400218107 -1.4298376167360638 -1.1208942217070921 -1.4128206364111353 0.3848646269332458 -0.37185862174349305 -1.0098456646694804 -0.20076838410899706 0.79715428131180444 1.615051639798023 -0.37965909128324721 -0.92162485940821426 -1.8137974522666103 -1.4128206364111353 1.0000000180025095e-35 -0.20076838410899706 0.33525296919668296 0.25719631365704576 1.1571161799582705 0.42931036363519198 0.95878243525549989 -0.29822749802330356
decision_type=2 2 2 2 2 2 2 2 2 2 2 2 2 2 2 2 2 2 2 2 2 2 2 2 2 2 2 2 2 2
left_child=-1 3 23 10 5 6 7 12 9 -9 20 -12 13 14 -4 -15 17 -8 -11 -20 21 -2 -7 -3 25 -14 27 -21 -29 -10
right_child=1 2 4 -5 -6 22 16 8 29 18 11 -13 24 15 -16 -17 -18 -19 19 26 -22 -23 -24 -25 -26 -27 -28 28 -30 -31
leaf_value=0.0099569473107492187 0.0058316917423831514 0.021917610786939889 0.0015443712746784435 -0.0054308978203007653 -0.0026087147495502398 0.0019481093083878404 0.0024254244216732048 0.022856701835989951 0.004462705501838464 -0.0038373239306503369 0.019680448752586489 0.0018279379448993872 -0.0025392628292053767 0.0149804653583801 -0.00181041294600372 0.0030207241834817656 -0.0047421570465367461 -0.0023138876149678524 0.023854309134185316 0.012192539941105578 -0.003869097910504618 -0.0021020406570218947 0.0089197836116266752 0.0098364984900083247 -0.0030755666250266815 0.010606427438071241 -0.0016834188961738399 0.0016928740716244538 0.0061272692582581929 -0.0044959638539905237
leaf_weight=92 180 44 1296 676 1125 229 408 20 53 73 27 126 677 58 1563 812 369 541 20 135 438 374 150 69 794 161 82 466 391 151
leaf_count=92 180 44 1296 676 1125 229 408 20 53 73 27 126 677 58 1563 812 369 541 20 135 438 374 150 69 794 161 82 466 391 151
internal_value=0 -7.96002e-05 0.000353534 -0.0023837 0.000186086 0.000558219 0.000363359 0.000732287 0.00352575 0.00450437 -0.000584656 0.00497838 7.47598e-06 0.000668685 -0.000289671 0.00381804 -0.00152663 -0.000276333 0.00418985 0.00472548 -0.00144266 0.000475706 0.00470735 0.0145406 -0.00150334 -1.36589e-05 0.00436927 0.00486959 0.00371603 -0.00216847
internal_weight=0 11508 9687 1821 9574 8449 8070 6752 1391 1187 1145 153 5361 3729 2859 870 1318 949 1167 1094 992 554 379 113 1632 838 1074 992 857 204
internal_count=11600 11508 9687 1821 9574 8449 8070 6752 1391 1187 1145 153 5361 3729 2859 870 1318 949 1167 1094 992 554 379 113 1632 838 1074 992 857 204
is_linear=0
shrinkage=0.1


Tree=20
num_leaves=31
num_cat=0
split_feature=7 5 7 3 7 7 7 7 7 3 5 7 7 3 7 7 3 3 7 3 3 7 7 3 7 5 7 8 5 8
split_gain=0.778762 0.774161 1.68387 1.37379 1.12855 0.720632 1.17222 1.22646 0.631707 0.59553 1.05702 3.5356 1.12438 0.745447 1.63328 0.716524 0.827432 0.697796 0.651363 0.86177 0.646103 0.931434 0.628031 0.470474 0.436519 0.506903 0.53529 0.436474 0.412916 0.398603
threshold=1.8057441248284616 -0.3867781818524238 -0.34894762369022997 0.44164518401087727 -1.4453739261766574 -1.0949325113202046 -0.86005527513135593 -0.599670961252038 -0.88189748245789967 -0.19398499394178542 0.23971291632002345 0.48853301030329149 -0.11358733868550543 0.11323435537294924 1.2549109588121843 0.3483858473321117 1.0470085628802064 0.11323435537294924 -0.14653966877718549 1.974691342411323 1.974691342411323 0.25701611370314142 0.91560066884329727 -1.8137974522666103 0.13061483986198366 0.52971269804023868 0.028061476039374332 -0.27561774327665683 -1.600581193479113 -0.27561774327665683
decision_type=2 2 2 2 2 2 2 2 2 2 2 2 2 2 2 2 2 2 2 2 2 2 2 2 2 2 2 2 2 2
left_child=1 4 3 5 23 -3 8 29 -7 -4 11 12 -11 14 -13 16 24 -14 19 -18 21 -20 -15 -1 25 -12 -27 -5 -25 -8
right_child=-2 2 9 27 -6 6 7 -9 -10 10 15 13 17 22 -16 -17 18 -19 20 -21 -22 -23 -24 28 -26 26 -28 -29 -30 -31
leaf_value=0.0077815582011484174 -0.0040785379767831831 0.012102076497394592 -0.0025385068138024177 0.021054938835176555 -0.0023250780028751775 0.00124266705850932 0.017582219753127831 0.0021993431081236011 -0.0060660053349515103 0.024932678494342539 -0.0040093568776728723 0.0062523304489333839 0.017884468207838105 -0.00017682858661747887 -0.00039822109403627403 -0.0065716376995902746 0.021768281849161273 0.0063409762320775741 0.0059877393210080627 0.0037016153408604225 -0.0032185018111079641 -0.001830166988176692 -0.0051582352118900937 -4.1744103467194338e-05 -0.0062251693908876617 0.0029795977377042211 -0.0024862807929811491 0.0076063445011197136 0.014477768797604812 0.0083124491223708994
leaf_weight=148 450 80 825 55 2124 331 65 537 184 43 480 515 61 801 1305 222 31 370 313 178 348 297 370 291 233 351 366 43 21 162
leaf_count=148 450 80 825 55 2124 331 65 537 184 43 480 515 61 801 1305 222 31 370 313 178 348 297 370 291 233 351 366 43 21 162
internal_value=0 0.000164605 0.000622257 0.00371925 -0.00135252 0.00289467 0.00231875 0.00480433 -0.00136859 -1.24765e-05 0.000319155 0.00148898 0.00951312 0.000217347 0.00148367 -0.00111874 -0.00065261 0.00797474 0.00132328 0.00638136 0.000219796 0.00218132 -0.0017508 0.00313817 -0.0022651 -0.00149426 0.000189484 0.015154 0.000935531 0.0109668
internal_weight=0 11150 8566 1457 2584 1359 1279 764 515 7109 6284 3465 474 2991 1820 2819 2597 431 1167 209 958 610 1171 460 1430 1197 717 98 312 227
internal_count=11600 11150 8566 1457 2584 1359 1279 764 515 7109 6284 3465 474 2991 1820 2819 2597 431 1167 209 958 610 1171 460 1430 1197 717 98 312 227
is_linear=0
shrinkage=0.1


Tree=21
num_leaves=31
num_cat=0
split_feature=7 3 7 7 7 7 7 7 3 7 3 7 5 7 7 3 7 3 7 3 7 3 7 7 3 3 7 3 7 8
split_gain=0.725852 0.726497 1.91883 0.835527 0.749069 1.61409 1.17643 1.04439 1.09265 0.616821 0.56288 0.646911 0.940323 2.95116 1.09991 0.676703 0.947067 0.644851 0.546141 0.687552 0.528182 0.471499 0.467344 0.461681 0.762474 0.545077 0.738562 0.454255 0.54191 0.376669
threshold=-1.5917377173869307 -0.54585236709129747 -1.2250091565865022 -1.3307338408959464 -0.29822749802330356 -0.86005527513135593 -1.0545349288273134 -0.72468609501285752 0.44164518401087727 -0.46385023550130816 -0.19398499394178542 1.8057441248284616 0.23971291632002345 0.66274561585490821 -0.15924595284695381 0.11323435537294924 1.2549109588121843 0.11323435537294924 0.3483858473321117 1.0470085628802064 0.27453188380923527 -1.1208942217070921 -1.4128206364111353 -0.13407490911535483 1.974691342411323 1.974691342411323 0.27453188380923527 -1.8137974522666103 -1.3984761867918762 -0.27561774327665683
decision_type=2 2 2 2 2 2 2 2 2 2 2 2 2 2 2 2 2 2 2 2 2 2 2 2 2 2 2 2 2 2
left_child=-1 3 -3 21 5 6 -4 29 9 -9 -6 12 13 14 -12 16 -15 -16 19 -14 -19 27 -23 24 -21 26 -25 28 -2 -7
right_child=1 2 4 -5 10 7 -8 8 -10 -11 11 -13 18 15 17 -17 -18 20 -20 23 -22 22 -24 25 -26 -27 -28 -29 -30 -31
leaf_value=0.012536671265906595 0.0047637566588714106 0.017162728380523067 0.0047984949998520869 -0.0043951756374117634 -0.0028587851245946609 0.022979164956247106 -0.002689428664620833 0.0053877386686992266 0.011271473116902334 5.4262362391455104e-05 0.027554079651832583 -0.0036706841833268606 -0.0023313006340381997 0.0049973535748584434 0.012470016154328557 -0.0022896774330280318 -0.00035839898160123981 0.0086118954341850244 -0.0059144739210161201 0.019066649697282737 0.0024099826914951135 0.017260350966481149 0.0024946066752958222 0.0049350283383539847 0.0026207512258340352 -0.0031440325791779536 -0.0021107597847048096 -0.0031049356724149567 -0.0018074790176770502 0.0097229245841374684
leaf_weight=46 233 67 276 765 777 34 875 361 155 543 25 450 1268 442 134 977 1305 222 222 34 360 27 104 346 165 330 261 466 272 58
leaf_count=46 233 67 276 765 777 34 875 361 155 543 25 450 1268 442 134 977 1305 222 222 34 360 27 104 346 165 330 261 466 272 58
internal_value=0 -4.99123e-05 0.000298207 -0.00185614 0.000180752 0.00175407 -0.000893888 0.00440203 0.00351418 0.00218411 -0.000314163 -1.1889e-05 0.000258421 0.00134008 0.00693559 -0.000182047 0.000996634 0.00621567 -0.00116882 -0.000730582 0.00477566 -9.35666e-05 0.00553793 0.00105614 0.0054306 0.000127087 0.00190546 -0.000853325 0.0012244 0.014622
internal_weight=0 11554 9687 1867 9620 2302 1151 1151 1059 904 7318 6541 6091 3465 741 2724 1747 716 2626 2404 582 1102 131 1136 199 937 607 971 505 92
internal_count=11600 11554 9687 1867 9620 2302 1151 1151 1059 904 7318 6541 6091 3465 741 2724 1747 716 2626 2404 582 1102 131 1136 199 937 607 971 505 92
is_linear=0
shrinkage=0.1


Tree=22
num_leaves=31
num_cat=0
split_feature=7 3 7 7 7 3 7 7 7 3 7 3 7 7 3 7 7 5 7 7 7 3 7 3 3 8 7 3 5 7
split_gain=0.605062 0.678684 1.55425 0.608975 0.608159 1.31204 0.69318 1.28924 0.969426 0.473459 0.533183 1.34203 1.08226 0.692292 1.01658 1.65399 0.583902 0.577647 1.03573 0.457753 0.418507 0.375626 0.42258 0.374467 0.544205 0.363608 0.333766 0.318286 0.440236 0.501119
threshold=-1.5574202493373417 -0.54585236709129747 -1.2250091565865022 -1.3224064993527014 -0.28587825003483458 0.44164518401087727 -0.86005527513135593 -0.53947887836946629 -1.0377962372511063 -0.19398499394178542 1.6066335031368282 0.11323435537294924 1.0087240796951196 0.90674827423931814 0.27832013479176987 0.21480184762010959 -0.15924595284695381 0.52971269804023868 -0.076518592597668911 0.41761934392052685 -0.7766873501479753 -1.1208942217070921 -1.4128206364111353 1.974691342411323 1.0470085628802064 -0.27561774327665683 0.3483858473321117 1.974691342411323 1.5167191254083192 0.25701611370314142
decision_type=2 2 2 2 2 2 2 2 2 2 2 2 2 2 2 2 2 2 2 2 2 2 2 2 2 2 2 2 2 2
left_child=-1 3 -3 21 5 6 8 20 -4 -6 11 12 19 14 15 16 -13 -16 23 -11 -8 -2 -23 24 -19 -7 27 28 -20 -30
right_child=1 2 4 -5 9 25 7 -9 -10 10 -12 13 -14 -15 17 -17 -18 18 26 -21 -22 22 -24 -25 -26 -27 -28 -29 29 -31
leaf_value=0.0080775012946738261 -0.0011419927621127794 0.015446455411894469 0.0038521011109579201 -0.0042157826642566102 -0.0026664894454307645 0.014717836027973268 0.01685346538281959 0.00046226264899672329 -0.0026132152896235863 0.019494826835580171 -0.0019066778467460286 0.024798671394586566 0.0013860221963480049 -0.0042400825747705003 -0.0053314638198337129 0.00069854312735830742 0.0085264453236424519 0.0033043292186145361 -0.0022580198413272275 0.0069490177857604351 0.0065508912259036253 0.015534315967427879 0.0017484890526276782 0.0010632270669950893 0.014316441689337057 0.0054133579991425262 -0.0056188502819324382 -0.0052018057945598332 0.0045499895771863794 -0.001444185924690965
leaf_weight=92 992 67 322 676 754 84 46 753 829 32 1215 25 765 424 287 974 187 156 780 319 276 27 126 308 63 84 198 180 267 292
leaf_count=92 992 67 322 676 754 84 46 753 829 32 1215 25 765 424 287 974 187 156 780 319 276 27 126 308 63 84 198 180 267 292
internal_value=0 -6.45751e-05 0.000268386 -0.0018358 0.000162676 0.00154404 0.000900903 0.00272687 -0.000804499 -0.000294974 -1.86883e-05 0.000417665 0.00349541 -0.000411788 2.49072e-05 0.0024408 0.0104453 -0.00110716 -0.000566882 0.0080928 0.00802269 -0.000430673 0.00418128 0.00331098 0.0064722 0.0100656 -0.00175712 -0.00125374 -0.00072301 0.00141886
internal_weight=0 11508 9687 1821 9620 2394 2226 1075 1151 7226 6472 5257 1116 4141 3717 1186 212 2531 2244 351 322 1145 153 527 219 168 1717 1519 1339 559
internal_count=11600 11508 9687 1821 9620 2394 2226 1075 1151 7226 6472 5257 1116 4141 3717 1186 212 2531 2244 351 322 1145 153 527 219 168 1717 1519 1339 559
is_linear=0
shrinkage=0.1


Tree=23
num_leaves=31
num_cat=0
split_feature=7 5 7 3 7 7 7 7 7 8 5 7 3 7 3 3 7 7 3 3 7 3 7 7 8 7 7 3 7 7
split_gain=0.506772 0.487909 1.16592 0.808142 0.448924 0.977024 0.511272 0.43788 0.423378 0.317886 0.298824 0.565247 1.8158 0.898502 0.619084 0.576087 0.430115 0.425942 0.823995 0.560197 0.51557 0.406328 0.393231 0.374274 0.314734 0.301448 0.281165 0.527479 0.886036 0.297186
threshold=-1.5917377173869307 -0.3867781818524238 -0.39349312536292175 0.44164518401087727 -0.86005527513135593 -0.95361973055419502 -0.72468609501285752 -1.4453739261766574 1.810732128905437 -0.37185862174349305 0.23971291632002345 0.80864736037173501 -0.19398499394178542 -0.11358733868550543 0.11323435537294924 0.11323435537294924 1.2950670168971377 0.054419139688232553 0.44164518401087727 1.974691342411323 -0.063539280936318818 1.0470085628802064 0.28970591726445433 -0.15442596574941356 0.15479750950657276 -0.17555410091335885 -0.98291769134316509 -0.54585236709129747 -1.2890131246900045 -1.0717461681581815
decision_type=2 2 2 2 2 2 2 2 2 2 2 2 2 2 2 2 2 2 2 2 2 2 2 2 2 2 2 2 2 2
left_child=-1 7 3 4 5 -3 -6 -2 10 -5 11 12 23 -14 24 16 -13 18 -12 21 -21 -20 -16 -4 -15 -23 27 -9 -29 -30
right_child=1 2 8 9 6 -7 -8 26 -10 -11 17 15 13 14 22 -17 -18 -19 19 20 -22 25 -24 -25 -26 -27 -28 28 29 -31
leaf_value=0.010475254123878626 0.0017086474412623658 0.005753834181237507 -0.0002504568062803034 0.02319089636951685 0.01145157220948676 -0.0025882425668184981 0.0032660487637044288 -0.0024288474953675218 -0.0033061528192074212 0.0081411766317614816 -0.0029216410212880243 0.0033697266691743062 0.018678227002017721 0.012397053153547753 0.0063683359524462557 -0.0028878639208178461 -0.00037486418946539106 -0.0021425955013726098 0.0025176330807185838 0.0011478974042464969 -0.006297086084558934 0.020091298930346967 0.0014031781163758902 -0.0047612901910839755 0.0048320589352659716 0.0068063911046578086 -0.0054753585819385412 0.021487203169436683 0.0036400008327715722 -0.0015828265945078718
leaf_weight=46 414 227 623 25 89 368 535 1453 405 32 541 401 43 111 215 708 1305 1273 445 426 119 20 618 261 109 117 194 21 180 276
leaf_count=46 414 227 623 25 89 368 535 1453 405 32 541 401 43 111 215 708 1305 1273 445 426 119 20 618 261 109 117 194 21 180 276
internal_value=0 -4.17052e-05 0.000303075 0.00310381 0.00255962 0.000594365 0.00443354 -0.0012665 -0.000158649 0.0147419 1.51398e-05 0.000537326 0.00178967 0.00450939 0.00393079 -0.00048987 0.000505312 -0.000765032 0.000286309 0.00182624 -0.000477704 0.00398371 0.0026847 -0.00158228 0.00864894 0.00874579 -0.0018464 -0.00148163 0.00140371 0.000478816
internal_weight=0 11554 9016 1276 1219 595 624 2538 7740 57 7335 4394 1980 1096 1053 2414 1706 2941 1668 1127 545 582 833 884 220 137 2124 1930 477 456
internal_count=11600 11554 9016 1276 1219 595 624 2538 7740 57 7335 4394 1980 1096 1053 2414 1706 2941 1668 1127 545 582 833 884 220 137 2124 1930 477 456
is_linear=0
shrinkage=0.1


Tree=24
num_leaves=31
num_cat=0
split_feature=7 3 7 7 1 7 5 8 0 7 7 7 3 7 3 7 7 6 3 5 7 7 3 7 7 3 3 7 7 7
split_gain=0.420775 0.519265 0.536419 0.415278 0.306439 0.267321 0.266045 0.230828 0.366164 0.240513 0.77914 0.498095 0.533235 0.495494 0.578189 0.593051 0.329523 0.326772 0.32048 0.498781 1.36394 0.501257 0.350781 0.358504 0.29366 0.356795 0.286268 0.283278 0.263259 0.260137
threshold=-1.5339608785837362 -1.1208942217070921 -1.385633388926317 1.7867687072135268 1.597444221293943 -0.11358733868550543 -2.0234208499721551 -1.5268888858752396 -1.2733951818746856 -0.29822749802330356 -0.86005527513135593 -0.599670961252038 0.44164518401087727 -0.99537194994378086 -0.54585236709129747 -1.2250091565865022 -0.43490931079363765 1.3024641555597365 -0.19398499394178542 0.23971291632002345 0.66274561585490821 -0.15442596574941356 0.11323435537294924 1.1697788555447366 0.3483858473321117 1.0470085628802064 0.11323435537294924 -0.19452951852829378 0.93647677853808997 0.13570785455110557
decision_type=2 2 2 2 2 2 2 2 2 2 2 2 2 2 2 2 2 2 2 2 2 2 2 2 2 2 2 2 2 2
left_child=6 -2 -3 4 7 -6 -1 8 -4 10 13 -12 -13 14 -9 -16 -14 18 -11 20 21 -20 23 -22 25 29 -23 -27 -24 -21
right_child=1 2 3 -5 5 -7 -8 9 -10 17 11 12 16 -15 15 -17 -18 -19 19 24 22 26 28 -25 -26 27 -28 -29 -30 -31
leaf_value=0.012743258410813037 -0.0018951684602715538 0.010619123614089071 0.0014524756438649175 -0.0024549256543216942 0.006268556995919071 0.00094744152996353208 0.0028313847772758641 -0.0021878575827341449 0.01610448029216217 -0.0020667024300998205 0.0073903166334108776 0.00091267842129317221 0.019673381140455606 -0.0027482423090110664 0.012291005366771926 0.0018267799999188165 0.0057093860199429322 -0.010133832239432995 0.02059871163684875 -0.0011814844756639215 0.0037440000465632549 0.0088925822600933978 -0.00064541462205558973 1.1920846367307398e-05 -0.004567920591919526 0.0062135293172824006 0.0034832702114693179 0.00022294990261614774 -0.0044400255636211083 -0.0052625439723802576
leaf_weight=37 1367 49 66 585 154 244 101 355 23 772 207 748 20 606 61 483 109 33 20 1003 326 121 688 1223 207 86 511 961 249 185
leaf_count=37 1367 49 66 585 154 244 101 355 23 772 207 748 20 606 61 483 109 33 20 1003 326 121 688 1223 207 86 511 961 249 185
internal_value=0 -6.60854e-05 0.000181597 0.000130688 0.000290563 0.00300637 0.00548892 0.000171299 0.00523895 0.000121041 0.000934041 0.00297811 0.00193669 -0.000538231 0.000951498 0.00300016 0.00787435 -0.000208616 -0.000157052 0.00010715 0.000941185 0.00501216 -0.000126504 0.000797368 -0.000964595 -0.000630864 0.00451891 0.000715013 -0.0016538 -0.001817
internal_weight=0 11462 10095 10046 9461 398 138 9063 89 8974 2589 1084 877 1505 899 544 129 6385 6352 5580 3138 652 2486 1549 2442 2235 632 1047 937 1188
internal_count=11600 11462 10095 10046 9461 398 138 9063 89 8974 2589 1084 877 1505 899 544 129 6385 6352 5580 3138 652 2486 1549 2442 2235 632 1047 937 1188
is_linear=0
shrinkage=0.1


Tree=25
num_leaves=31
num_cat=0
split_feature=7 5 7 5 7 7 7 7 7 7 8 0 8 3 5 7 3 7 7 7 3 7 3 7 3 3 7 7 8 7
split_gain=0.368214 0.352814 0.828804 0.547631 0.377058 0.408866 0.516929 0.350851 0.334785 0.29457 0.225336 0.316099 0.217051 0.216935 0.268687 0.21037 0.335416 0.640624 0.25297 0.210474 0.210068 0.386002 1.15334 0.611845 0.454978 0.387114 0.296032 0.294133 0.294001 0.288943
threshold=-1.5917377173869307 -0.3867781818524238 -0.39349312536292175 0.34647703565712751 -1.1818602960553635 -0.86005527513135593 -0.90904272569785938 -0.7766873501479753 -1.4453739261766574 1.8154366043296157 -1.5268888858752396 -1.0946479637563977 -0.931587075776805 -1.8137974522666103 -1.600581193479113 -0.98291769134316509 -0.54585236709129747 -1.2890131246900045 -1.3092381685894872 -1.0717461681581815 0.27832013479176987 0.80864736037173501 -0.19398499394178542 -0.016557533061820291 0.11323435537294924 0.11323435537294924 1.4632205101278812 -0.15442596574941356 -0.37185862174349305 0.41761934392052685
decision_type=2 2 2 2 2 2 2 2 2 2 2 2 2 2 2 2 2 2 2 2 2 2 2 2 2 2 2 2 2 2
left_child=-1 8 3 4 -3 6 -6 -7 13 10 11 -4 -5 -2 -15 16 18 -18 -10 -19 21 22 27 28 29 26 -23 -12 -24 -25
right_child=1 2 9 12 5 7 -8 -9 15 -11 20 -13 -14 14 -16 -17 17 19 -20 -21 -22 25 23 24 -26 -27 -28 -29 -30 -31
leaf_value=0.0089291146865276543 0.0047793183203813806 0.012693802405600297 0.0012521187338873517 0.018984169378876689 0.0028828410328480044 0.012235603422265161 -0.0031837702608912798 0.002970576730842763 -0.0011372861620162025 -0.0029248419459650503 -7.8703671922678706e-05 0.015916142882832947 0.0069225562506707739 -0.00097749217077307553 0.010788634903950706 -0.0047231411596812059 0.018109382458385968 0.0029061184739950681 -0.0039875224709924953 -0.0014892024341189309 -0.00071547074075142597 0.0021021926668704674 0.020726560801267627 0.015752100595273079 0.0018144345963917404 -0.0024051808059375518 -0.00061726170448797406 -0.0040784908927597062 0.0078218394399366589 0.0054647723400761301
leaf_weight=46 137 33 49 25 286 44 276 575 1001 360 622 21 37 256 21 194 21 180 452 276 2874 622 26 32 790 719 1123 261 55 186
leaf_count=46 137 33 49 25 286 44 276 575 1001 360 622 21 37 256 21 194 21 180 452 276 2874 622 26 32 790 719 1123 261 55 186
internal_value=0 -3.55495e-05 0.000257638 0.00261901 0.00215084 0.00185624 -9.64912e-05 0.00362916 -0.00107707 -0.000131652 4.60081e-06 0.00565133 0.0117861 0.00152437 -8.54753e-05 -0.00158413 -0.0012686 0.00103224 -0.00202394 0.000245793 -4.94718e-05 0.000382016 0.00142473 0.0036024 0.00293047 -0.000452494 0.00035208 -0.00126097 0.0119641 0.00697484
internal_weight=0 11554 9016 1276 1214 1181 562 619 2538 7740 7380 70 62 414 277 2124 1930 477 1453 456 7310 4436 1972 1089 1008 2464 1745 883 81 218
internal_count=11600 11554 9016 1276 1214 1181 562 619 2538 7740 7380 70 62 414 277 2124 1930 477 1453 456 7310 4436 1972 1089 1008 2464 1745 883 81 218
is_linear=0
shrinkage=0.1


Tree=26
num_leaves=31
num_cat=0
split_feature=7 5 7 3 7 7 7 7 7 8 8 7 6 7 3 7 7 3 5 5 3 7 8 5 7 7 8 7 3 7
split_gain=0.298253 0.286575 0.693077 0.456201 0.34056 0.283879 0.504155 0.350651 0.272929 0.237797 0.23567 0.228391 0.223361 0.202125 0.271687 0.518905 0.20812 0.203671 0.288346 0.199698 0.319664 1.31778 0.45533 0.312668 0.770542 0.306566 0.285476 0.256905 0.341381 0.274024
threshold=-1.5917377173869307 -0.38814764915909461 -0.32188638893998783 0.44164518401087727 -1.0949325113202046 -0.86005527513135593 -0.53947887836946629 -0.88189748245789967 -1.4453739261766574 -1.1493166938297532 -1.1731952741578342 1.8154366043296157 1.3024641555597365 -0.98291769134316509 -0.54585236709129747 -1.2890131246900045 -1.3139426440136657 -1.1208942217070921 -2.0206900741332703 -0.032066708552554522 0.27832013479176987 0.41761934392052685 -1.3073847916949271 0.52971269804023868 -0.092994757643508896 -0.11358733868550543 -1.2735300227452835 0.80864736037173501 0.11323435537294924 1.5160513490989593
decision_type=2 2 2 2 2 2 2 2 2 2 2 2 2 2 2 2 2 2 2 2 2 2 2 2 2 2 2 2 2 2
left_child=-1 8 3 4 -3 7 10 -6 -2 -5 -7 12 19 14 16 -16 17 18 -10 -4 21 22 -21 -22 26 -24 -25 -23 29 -29
right_child=1 2 11 9 5 6 -8 -9 13 -11 -12 -13 -14 -15 15 -17 -18 -19 -20 20 23 27 25 24 -26 -27 -28 28 -30 -31
leaf_value=0.0080362031458998517 0.0013719346814481917 0.0079726050408135043 -0.0014520252132718204 0.016037523638390536 0.0013443103969774878 0.013032774861297898 0.00054994208379552389 -0.0041009482182625626 -0.00029819031627176425 0.0055760373497026564 0.0045444563858075644 -0.002632357739364832 -0.0082581906170217378 -0.0046910084307725947 0.016298444232060796 0.00022121340532242344 -0.0033731603360480571 0.0022575683227787631 -0.0045684212398268038 0.019976510897116818 -0.0031901624955184569 0.001810413530255711 0.014223450338209254 0.014775292451183001 -0.0011344352095775381 0.0044991911670330207 0.0028527524920449968 0.0019719597442820164 -0.0021798613156358638 -0.00061860384779997997
leaf_weight=46 414 80 847 28 331 37 561 184 516 97 282 360 33 175 21 456 542 167 228 23 407 707 36 21 1792 326 460 680 721 1022
leaf_count=46 414 80 847 28 331 37 561 184 516 97 282 360 33 175 21 456 542 167 228 23 407 707 36 21 1792 326 460 680 721 1022
internal_value=0 -3.19946e-05 0.000230973 0.002119 0.00162744 0.00126355 0.00235485 -0.00060118 -0.000975193 0.00791941 0.00552899 -0.000175326 -5.03039e-05 -0.00143681 -0.00114174 0.000929016 -0.00182155 -0.000898411 -0.00160681 -1.18404e-05 0.000185066 0.000812302 0.00633309 -0.000637596 -0.000180537 0.00546624 0.00337328 0.000133227 -0.000356154 0.000416404
internal_weight=0 11554 9035 1600 1475 1395 880 515 2519 125 319 7435 7075 2105 1930 477 1453 911 744 7042 6195 3515 385 2680 2273 362 481 3130 2423 1702
internal_count=11600 11554 9035 1600 1475 1395 880 515 2519 125 319 7435 7075 2105 1930 477 1453 911 744 7042 6195 3515 385 2680 2273 362 481 3130 2423 1702
is_linear=0
shrinkage=0.1


Tree=27
num_leaves=31
num_cat=0
split_feature=7 3 7 7 3 3 7 7 6 5 5 7 5 7 8 7 5 7 7 3 3 7 8 0 5 7 7 5 3 8
split_gain=0.243651 0.309287 0.412757 0.237702 0.599971 0.270833 0.293485 0.280195 0.215375 0.206083 0.202497 0.341682 0.194998 0.322143 0.193672 0.187083 0.200242 0.292861 0.569495 0.372308 0.286042 0.732422 0.367469 0.305177 0.254039 0.265636 0.234231 0.219503 0.317922 0.18232
threshold=-1.5339608785837362 -1.1208942217070921 -1.3984761867918762 -0.28587825003483458 0.44164518401087727 -0.41357714657312744 -1.1818602960553635 -0.99537194994378086 1.2969190880597294 -2.0234208499721551 -2.0223285396366015 -1.385633388926317 -0.021959658391981381 -0.7766873501479753 -1.160494496206854 1.8154366043296157 -0.052189529080681883 -0.25586621708326623 -0.10309677853203555 1.974691342411323 0.44164518401087727 0.72097400029033398 -1.2735300227452835 -0.20091187316495956 -0.001006997325816655 1.1697788555447366 0.3483858473321117 0.21970418850494919 1.0470085628802064 -0.98315866149415287
decision_type=2 2 2 2 2 2 2 2 2 2 2 2 2 2 2 2 2 2 2 2 2 2 2 2 2 2 2 2 2 2
left_child=9 10 -3 4 5 7 -7 -4 15 -1 11 -2 13 -8 -6 16 -5 -18 19 27 21 22 23 -20 25 -23 -22 -19 -29 -26
right_child=1 2 3 8 14 6 12 -9 -10 -11 -12 -13 -14 -15 -16 -17 17 18 20 -21 26 24 -24 -25 29 -27 -28 28 -30 -31
leaf_value=0.010561535316141877 0.0031282272112765916 0.010543332413133037 0.00010879043303921445 -0.0015373139674216547 0.014107642940984206 0.010627161570344911 0.013598209977723087 -0.0039165895850911334 -0.0056069455025015945 0.001837859595756941 -0.002788047241261229 -0.0016707518006929347 0.0003855766675601158 0.0021614665979414727 0.0051233902161106765 -0.0023691219360464149 -0.0028691625872003194 0.016130256401779858 0.0021693064154879676 0.00084215676506389141 -0.00056727256951384284 0.0032015248722697533 0.0026500544420881168 0.01788707235828042 -0.0044202697297246662 -7.3614186430955407e-05 -0.0042170369667875662 0.0032800285711763774 0.012755440929322504 -0.00087058094513621064
leaf_weight=37 205 38 770 780 29 33 26 223 73 101 625 537 1144 467 139 360 302 23 21 197 1637 300 770 30 179 1419 197 135 48 755
leaf_count=37 205 38 770 780 29 33 26 223 73 101 625 537 1144 467 139 360 302 23 21 197 1637 300 770 30 179 1419 197 135 48 755
internal_value=0 -5.0288e-05 0.000140865 0.00010156 0.000878275 0.000512626 0.00129027 -0.000795197 -0.000202741 0.00417682 -0.00146191 -0.000344888 0.00110205 0.00276462 0.00667424 -0.000147588 -2.98566e-05 0.000165689 0.000326173 0.00395029 5.10192e-05 0.000584396 0.00319453 0.0114151 -0.000223339 0.000497963 -0.000959314 0.00692263 0.00576538 -0.00155087
internal_weight=0 11462 10095 10057 2831 2663 1670 993 7226 138 1367 742 1637 493 168 7153 6793 6013 5711 403 5308 3474 821 51 2653 1719 1834 206 183 934
internal_count=11600 11462 10095 10057 2831 2663 1670 993 7226 138 1367 742 1637 493 168 7153 6793 6013 5711 403 5308 3474 821 51 2653 1719 1834 206 183 934
